tree
version=v4
num_class=3
num_tree_per_iteration=3
label_index=0
max_feature_idx=15
objective=multiclass num_class:3
feature_names=return_std_50 return_std_20 day_sin volume_std_50 ATR_14 ATR_Norm_14 day_of_week return_std_10 BB_Width_20_2 volume_momentum_20 volume_std_20 ADX_28 volume_std_10 volume_std_5 return_50_abs return_10_abs
feature_infos=[-1.3974906570995294:9.7910608762426925] [-1.2689278650624536:10.377887631145642] [-1.4963941393907718:1.4001498326403381] [-1.0364579151085724:8.7434558579715915] [-1.3241477228867122:10.842465471404651] [-1.7983191520212951:11.754347677963837] [-1.4554475749343003:1.6531022637068786] [-1.1795900674214561:16.572863193363318] [-1.1323644108063908:14.007229150142663] [-2.6751325157383747:3.297406186110218] [-0.83609736356167064:12.619998095157538] [-2.1904441828787777:4.8859409352348955] [-0.71997833907015107:17.582912226022252] [-0.62063286916923877:23.87111303544328] [-0.93729317990976546:9.4812555430987526] [-0.83951052141472227:20.497173851647201]
tree_sizes=3089 3103 245 3520 3534 227 3523 3506 227 3527 3511 228 3538 3515 228 3523 3513 228 3540 3517 228 3530 3531 228 3527 3515 228 3543 3549 228 3531 3534 228 3521 3510 228 3526 3520 228 3523 3523 228 3543 3522 228 3554 3533 228 3545 3535 228 3543 3526 228 3551 3531 228 3530 3531 228 3529 3525 228 3536 3524 228 3550 3541 228 3535 3535 228 3535 3547 228 3525 3532 228 3541 3529 228 3548 3541 228 3541 3540 228 3563 3523 228 3538 3517 228 3516 3538 228 3547 3546 228 3535 3505 229 3542 3529 229 3543 3531 229 3530 3543 229 3543 3532 229 3534 3542 229 3530 3493 229 3520 3504 229 3515 3524 229 3563 3553 229 3512 3490 229 3524 3507 229 3544 3534 229 3538 3533 229 3540 3531 229 3562 3525 229 3539 3487 229 3508 3518 229 3541 3530 229 3521 3534 229 3525 3515 229 3530 3511 229 3501 3528 229 3500 3499 229 3535 3485 229 3516 3491 229 3517 3511 229 3488 3511 229 3471 3509 229 3522 3484 229 3518 3497 229 3520 3499 229 3513 3475 229 3489 3485 229 3510 3513 229 3469 3486 229 3527 3469 229 3502 3489 229 3518 3506 229 3487 3474 229 3500 3491 229 3480 3494 229 3493 3524 229 3480 3481 229 3493 3511 229 3467 3493 229 3503 3474 229 3500 3494 229 3458 3499 229 3490 3520 229 3481 3494 229 3494 3507 229 3478 3485 229 3488 3460 229 3493 3492 229 3509 3485 229 3482 3501 229 3482 3478 229 3459 3476 229 3516 3466 229 3471 3450 229 3479 3484 229 3487 3470 229 3495 3483 229 3453 3493 229 3512 3510 229 3476 3453 229

Tree=0
num_leaves=31
num_cat=0
split_feature=5 2 2 2 2 2 2 5 2 2 2 2 2 2 2 2 4 2 2 2 2 2 2 2 2 0 2 2 3 0
split_gain=3095.92 731.838 2308.2 763.849 1261.78 791.62 2351.81 723.939 705.251 3260.97 502.068 640.29 266.212 675.008 1284.22 660.876 246.603 217.28 396.154 107.027 145.491 324.213 100.892 280.867 111.473 90.3222 86.634 251.337 73.1438 69.0864
threshold=-0.62639864198417905 -0.69264850286017754 -0.050142951377801413 1.4001146163701457 1.1133919730695161 1.1085972150607302 0.59644878960643732 -1.128514843174621 -0.048054747314925171 0.59638242017028242 -1.4963760492582134 -1.2156064714363222 -1.4963760492582134 -0.69271711080665532 -1.2094839260331829 -1.2156064714363222 -0.93383117949008976 -1.2094839260331829 -0.69271711080665532 1.4001146163701457 -0.69264850286017754 -0.050142951377801413 -0.048054747314925171 0.59638242017028242 1.1133919730695161 -0.062193172840112144 -1.2094839260331829 -0.69271711080665532 1.7631237630170602 -0.72553433851900484
decision_type=2 2 2 2 2 2 2 2 2 2 2 2 2 2 2 2 2 2 2 2 2 2 2 2 2 2 2 2 2 2
left_child=7 12 -3 4 5 6 8 -1 -4 -10 -9 -12 -2 14 15 -14 26 -18 -19 20 -20 -22 -23 -24 -25 -7 -13 -28 -5 -11
right_child=1 2 3 28 -6 25 -8 10 9 29 11 16 13 -15 -16 -17 17 18 19 -21 21 22 23 24 -26 -27 27 -29 -30 -31
leaf_value=-0.73949718317268498 -0.7135231968201079 -0.62648051389327863 -0.70196116096704841 -0.70612104297371658 -0.62648051389327863 -0.70976188806040375 -0.62648051389327863 -0.73005586189766836 -0.62648051389327863 -0.72287898132622885 -0.62648051389327863 -0.73211014352290826 -0.62648051389327863 -0.70614050174998777 -0.62648051389327863 -0.70445021594481871 -0.71436269137277153 -0.62648051389327863 -0.71703123853095974 -0.71776170256723437 -0.62648051389327863 -0.7144346247919402 -0.62648051389327863 -0.69910047796820807 -0.62648051389327863 -0.69552630957408734 -0.62648051389327863 -0.71489704636778206 -0.68458553672432887 -0.69898479741749175
leaf_weight=2392.125 1968 1804.5 4427.625 3950.25 1011.75 2044.875 1914.375 2164.125 2206.875 326.25 265.5 675 309.375 4323.375 936 2236.125 1341 226.125 431.25 445.875 211.125 392.25 174 974.25 55.875 2448.375 83.25 2328.75 438 4158.375
leaf_count=6379 5248 4812 11807 10534 2698 5453 5105 5771 5885 870 708 1800 825 11529 2496 5963 3576 603 1150 1189 563 1046 464 2598 149 6529 222 6210 1168 11089
internal_value=-0.693151 -0.685505 -0.680928 -0.685213 -0.680773 -0.683907 -0.677668 -0.714844 -0.686481 -0.676238 -0.708807 -0.70276 -0.697089 -0.692945 -0.67656 -0.694974 -0.70552 -0.69771 -0.690038 -0.695391 -0.690936 -0.68471 -0.692411 -0.685237 -0.695161 -0.702005 -0.716276 -0.711845 -0.703972 -0.700723
internal_weight=46664.6 34504.1 24731.2 22926.8 18538.5 17526.8 13033.5 12160.5 11119.1 6691.5 9768.38 7604.25 9772.88 7804.88 3481.5 2545.5 7338.75 4251.75 2910.75 2684.62 2238.75 1807.5 1596.38 1204.12 1030.12 4493.25 3087 2412 4388.25 4484.62
internal_count=124439 92011 65950 61138 49436 46738 34756 32428 29651 17844 26049 20278 26061 20813 9284 6788 19570 11338 7762 7159 5970 4820 4257 3211 2747 11982 8232 6432 11702 11959
is_linear=0
shrinkage=1


Tree=1
num_leaves=31
num_cat=0
split_feature=5 2 2 2 2 2 2 5 2 2 2 2 2 2 6 6 2 4 2 2 2 2 2 2 0 0 2 2 2 2
split_gain=3095.92 731.838 2308.2 763.849 1261.78 791.62 2351.81 723.939 705.251 3260.97 502.068 640.29 266.212 675.008 1968.91 250.262 719.93 189.782 107.027 145.491 324.213 100.892 280.867 111.473 90.3222 69.0864 69.0818 246.18 65.8402 159.087
threshold=-0.62639864198417905 -0.69264850286017754 -0.050142951377801413 1.4001146163701457 1.1133919730695161 1.1085972150607302 0.59644878960643732 -1.128514843174621 -0.048054747314925171 0.59638242017028242 -1.4963760492582134 -1.2156064714363222 -1.4963760492582134 -0.69271711080665532 1.394056443820114 1.394056443820114 -0.69271711080665532 -0.93383117949008976 1.4001146163701457 -0.69264850286017754 -0.050142951377801413 -0.048054747314925171 0.59638242017028242 1.1133919730695161 -0.062193172840112144 -0.72553433851900484 0.59644878960643732 1.1085972150607302 -1.4963760492582134 -1.2156064714363222
decision_type=2 2 2 2 2 2 2 2 2 2 2 2 2 2 2 2 2 2 2 2 2 2 2 2 2 2 2 2 2 2
left_child=7 12 -3 4 5 6 8 28 -4 -10 -9 -12 -2 14 -14 16 -13 -18 19 -19 -21 -22 -23 26 -7 -11 -24 -28 -1 -30
right_child=1 2 3 -5 -6 24 -8 10 9 25 11 15 13 -15 -16 -17 17 18 -20 20 21 22 23 -25 -26 -27 27 -29 29 -31
leaf_value=-0.63583623207379236 -0.67277116429978268 -0.75981384722661194 -0.68433320015284216 -0.68232282005177003 -0.75981384722661194 -0.67653247305948683 -0.75981384722661194 -0.65623849922222222 -0.75981384722661194 -0.66341537979366172 -0.75981384722661194 -0.75981384722661194 -0.75981384722661194 -0.6801538593699028 -0.68150269119943774 -0.66574447012851423 -0.67139731475210851 -0.66926312258893084 -0.6685326585526562 -0.75981384722661194 -0.67185973632795037 -0.75981384722661194 -0.67316342751364144 -0.75981384722661194 -0.69076805154580323 -0.68730956370239882 -0.75981384722661194 -0.67981384722661198 -0.75981384722661194 -0.6506251124641067
leaf_weight=871.125 1968 1804.5 4427.625 4388.25 1011.75 2044.875 1914.375 2164.125 2206.875 326.25 265.5 314.625 1255.125 4323.375 2226.375 2010.75 2328.75 431.25 445.875 211.125 392.25 174 461.625 55.875 2448.375 4158.375 128.25 384.375 34.125 1486.875
leaf_count=2323 5248 4812 11807 11702 2698 5453 5105 5771 5885 870 708 839 3347 11529 5937 5362 6210 1150 1189 563 1046 464 1231 149 6529 11089 342 1025 91 3965
internal_value=-0.693143 -0.700789 -0.705367 -0.701081 -0.705521 -0.702387 -0.708627 -0.67145 -0.699814 -0.710057 -0.677487 -0.683534 -0.689205 -0.693349 -0.709735 -0.680775 -0.686447 -0.681842 -0.690903 -0.695358 -0.701584 -0.693883 -0.701057 -0.691133 -0.684289 -0.685571 -0.687194 -0.699828 -0.646797 -0.653075
internal_weight=46664.6 34504.1 24731.2 22926.8 18538.5 17526.8 13033.5 12160.5 11119.1 6691.5 9768.38 7604.25 9772.88 7804.88 3481.5 7338.75 5328 5013.38 2684.62 2238.75 1807.5 1596.38 1204.12 1030.12 4493.25 4484.62 974.25 512.625 2392.12 1521
internal_count=124439 92011 65950 61138 49436 46738 34756 32428 29651 17844 26049 20278 26061 20813 9284 19570 14208 13369 7159 5970 4820 4257 3211 2747 11982 11959 2598 1367 6379 4056
is_linear=0
shrinkage=1


Tree=2
num_leaves=1
num_cat=0
split_feature=
split_gain=
threshold=
decision_type=
left_child=
right_child=
leaf_value=-34.538776391283193
leaf_weight=
leaf_count=155720
internal_value=
internal_weight=
internal_count=
is_linear=0
shrinkage=1


Tree=3
num_leaves=31
num_cat=0
split_feature=5 2 2 2 2 2 2 2 2 5 2 2 2 2 2 2 4 2 2 0 2 2 2 2 2 0 3 2 2 2
split_gain=2704.11 688.206 2104.05 685.167 1142.38 710.824 2123.69 628.817 2950.11 577.771 406.991 553.614 250.883 582.785 1211.77 623.283 214.107 158.14 300.477 80.8785 77.5161 215.442 74.8116 96.8677 235.436 70.1114 70.018 68.5519 198.672 77.4313
threshold=-0.67301935169373805 -0.69264850286017754 -0.050142951377801413 1.4001146163701457 1.1133919730695161 1.1085972150607302 0.59644878960643732 -0.048054747314925171 0.59638242017028242 -1.1433882181630424 -1.4963760492582134 -1.2156064714363222 -1.4963760492582134 -0.69271711080665532 -1.2094839260331829 -1.2156064714363222 -0.93383117949008976 -1.2094839260331829 -0.69271711080665532 -0.062193172840112144 -1.2094839260331829 -0.69271711080665532 1.4001146163701457 -0.69264850286017754 -0.050142951377801413 -0.72553433851900484 1.7631237630170602 -0.048054747314925171 0.59638242017028242 0.59644878960643732
decision_type=2 2 2 2 2 2 2 2 2 2 2 2 2 2 2 2 2 2 2 2 2 2 2 2 2 2 2 2 2 2
left_child=9 12 -3 4 5 6 7 -4 -9 -1 -11 -12 -2 14 15 -14 20 -18 -19 -7 -13 -22 23 -20 -25 -10 -5 -26 -29 -30
right_child=1 2 3 26 -6 19 -8 8 25 10 11 16 13 -15 -16 -17 17 18 22 -21 21 -23 -24 24 27 -27 -28 28 29 -31
leaf_value=-0.044514364834088133 -0.019536652464579057 0.062535571145741528 -0.0084865165533667252 -0.012455940926112659 0.062526356844963299 -0.01576738252876057 0.062553388196868204 0.06252558696458449 -0.028785416702741623 -0.035320736259726947 0.062572990719274968 -0.037698432033709872 0.062505778447824498 -0.012418268041884714 0.062505778447824498 -0.011355360376634337 -0.019071870862578166 0.062519718697258628 -0.0223186448898407 -0.0024747633219854592 0.062677392143619615 -0.021288911421723039 -0.023443410313060329 0.062521666669205542 -0.020123264827476544 -0.0056583958381448279 0.0085739071057464294 0.06254554208942413 -0.018963997144502615 0.011665281542883939
leaf_weight=2205.7437489032745 2119.2258890867233 1845.822913646698 4540.8540049791336 4075.6186446547508 1027.8150525391102 2125.6701924204826 1938.4894205629826 2242.3007156252861 355.20503664016724 2067.4798610806465 253.14443489909172 671.61263045668602 324.05760300159454 4449.7009703814983 968.0660882294178 2408.2084720730782 1229.6024269759655 194.88348996639252 337.68181201815605 2478.7296558916569 79.152320802211761 2192.264019459486 350.78690004348755 170.98984181880951 316.72974827885628 4233.5897206664085 438.37426570057869 136.64364486932755 384.30630320310593 445.57597774267197
leaf_count=5895 5654 4944 12110 10870 2753 5670 5192 6006 948 5521 678 1793 868 11868 2593 6423 3281 522 901 6610 212 5849 936 458 845 11290 1169 366 1025 1189
internal_value=-2.44537e-06 0.00670591 0.0111365 0.0070919 0.0112634 0.00832235 0.0141802 0.00593435 0.0155204 -0.0216239 -0.0159064 -0.00997171 -0.00421073 -0.000225577 0.0144363 -0.00259514 -0.0127925 -0.00455647 0.0030788 -0.00861144 -0.0227754 -0.0183629 -0.00232746 0.00180619 0.00740808 -0.00744859 -0.0104136 6.43674e-05 0.00667984 -0.00251869
internal_weight=46608.3 35571.7 25302.5 23456.6 18942.7 17914.8 13310.4 11371.9 6831.1 11036.6 8830.85 6763.37 10269.3 8150.03 3700.33 2732.27 6510.23 3567.2 2337.6 4604.4 2943.03 2271.42 2142.71 1791.93 1454.25 4588.79 4513.99 1283.26 966.526 829.882
internal_count=124439 94968 67562 62618 50579 47826 35546 30354 18244 29471 23576 18055 27406 21752 9884 7291 17377 9523 6242 12280 7854 6061 5720 4784 3883 12238 12039 3425 2580 2214
is_linear=0
shrinkage=0.05


Tree=4
num_leaves=31
num_cat=0
split_feature=5 5 6 15 6 3 4 3 7 6 15 13 9 4 5 11 5 4 11 15 11 5 8 5 13 15 4 1 4 12
split_gain=2704.11 577.771 552.409 345.267 215.592 215.6 180.881 122.28 109.695 95.1571 89.0301 73.8843 70.9739 58.4487 53.7237 53.1355 52.2464 48.402 52.1447 47.4781 39.4251 39.1383 39.0309 35.1152 34.8497 34.5044 34.1926 36.1253 34.1562 32.3656
threshold=-0.67301935169373805 -1.1433882181630424 0.3578731642730541 -0.69562491289268746 0.87596480404658406 -0.47400488982655148 -0.6453685595148837 -0.79093956498970297 -0.64367197811629628 1.394056443820114 -0.68399891979196548 -0.26382089227393507 -1.346732483468343 -0.92741252032301957 -0.82514752954668469 -0.94442065409729148 -1.3311310949921322 -0.97134315896247914 -1.0859837996489208 -0.76603359325641618 -0.59489587599158311 -0.860498285698027 -0.51796062403133147 -1.0356289346377365 -0.51187523738600227 -0.79307571113101016 -1.0041181292445083 0.064262128150343698 0.56378457512056801 -0.47734819211704549
decision_type=2 2 2 2 2 2 2 2 2 2 2 2 2 2 2 2 2 2 2 2 2 2 2 2 2 2 2 2 2 2
left_child=1 16 3 25 5 13 17 -6 -8 10 -4 20 -12 -3 -7 -14 -1 -5 -19 -15 -10 -9 23 -21 -20 -2 -17 -28 -29 -24
right_child=2 4 9 6 7 14 8 21 11 -11 12 -13 15 19 -16 26 -18 18 24 22 -22 -23 29 -25 -26 -27 27 28 -30 -31
leaf_value=0.055380915424233658 0.018040842632082651 0.011009783570657598 0.014107878261880705 0.012180664225637758 0.01452453449566214 0.030915411510406748 0.0053409444187589071 0.037119109687811055 -0.0065000685953107602 0.011689111543447149 0.012585555237731192 -0.018436942061334182 0.0083018664690240728 0.020322291446997435 0.013684761006544144 0.026284815144008822 0.039064955983871601 0.020410273951487673 0.020979372905164145 0.013312974349576049 -0.014225336468201661 0.024153382863741614 0.012878802359853728 -0.015108820832683528 -0.007355325415083179 0.0041965320162019098 -0.0093121148502002798 0.0045955662037650826 -0.0076206298878080843 -0.012860529274967378
leaf_weight=736.7019727230072 628.59829521179199 782.46745073795319 1025.6750269532204 435.82559621334076 1902.7344377338886 843.59707999229431 653.41080468893051 1351.9718371927738 2348.4877448379993 2397.7162049412727 777.88330173492432 9740.1536080539227 836.65969777107239 167.10046729445457 975.48269844055176 84.700638353824615 1469.0417761802673 187.76584780216217 111.66689297556877 120.22594928741455 5564.9881425499916 1022.0203532278538 345.01301237940788 1131.184140175581 3848.3610815703869 1584.5834800899029 3041.0292617082596 1246.5329256653786 1057.6900949776173 189.05598515272141
leaf_count=1969 1677 2088 2737 1163 5081 2251 1744 3610 6270 6395 2076 26012 2233 446 2603 226 3926 501 298 321 14861 2729 921 3021 10275 4229 8121 3327 2823 505
internal_value=2.44537e-06 0.0216239 -0.00670591 -0.0107294 0.0159064 0.00833568 -0.0125527 0.0239682 -0.0147767 0.00294323 0.000344753 -0.0155213 -0.00165915 -0.000536604 0.0216755 -0.00342737 0.0445144 -0.00367008 -0.00533558 -0.00516365 -0.0119327 0.0315373 -0.00754884 -0.0123783 -0.00655633 0.00812866 -0.00523463 -0.00573409 -0.00101194 0.00376729
internal_weight=46608.3 11036.6 35571.7 25103.8 8830.85 4554.13 22890.7 4276.73 18307 10467.9 8070.17 17653.6 7044.5 2735.05 1819.08 6266.61 2205.74 4583.62 4147.79 1952.58 7913.48 2373.99 1785.48 1251.41 3960.03 2213.18 5429.95 5345.25 2304.22 534.069
internal_count=124439 29471 94968 67030 23576 12156 61124 11420 48887 27938 21543 47143 18806 7302 4854 16730 5895 12237 11074 5214 21131 6339 4768 3342 10573 5906 14497 14271 6150 1426
is_linear=0
shrinkage=0.05


Tree=5
num_leaves=1
num_cat=0
split_feature=
split_gain=
threshold=
decision_type=
left_child=
right_child=
leaf_value=0
leaf_weight=
leaf_count=155720
internal_value=
internal_weight=
internal_count=
is_linear=0
shrinkage=1


Tree=6
num_leaves=31
num_cat=0
split_feature=5 2 2 2 2 2 2 2 2 2 2 2 6 5 2 2 3 6 2 5 5 3 2 2 13 2 2 10 7 5
split_gain=2374.75 841.048 750.776 1142.6 753.577 2134.16 606.215 2614.1 529.696 419.939 2647.03 376.109 1705.46 309.243 177.189 404.155 133.637 150.126 224.545 78.0158 75.1228 69.8485 66.5352 207.177 64.7562 55.2435 130.866 49.824 49.002 46.6467
threshold=-0.83424551588450091 -1.4963760492582134 1.4001146163701457 1.1133919730695161 1.1085972150607302 0.59644878960643732 0.59638242017028242 -0.048054747314925171 -1.2156064714363222 -0.050142951377801413 -0.69264850286017754 -0.69271711080665532 1.394056443820114 -1.1433882181630424 -1.4963760492582134 -1.2156064714363222 -0.39795684367959394 1.394056443820114 -0.69271711080665532 0.96761753543352447 -0.32171330967243106 1.7631237630170602 -0.69264850286017754 -0.050142951377801413 -0.13848436112332671 -1.4963760492582134 -1.2156064714363222 -0.096867319112934849 -0.52811338019732212 0.3689816346890023
decision_type=2 2 2 2 2 2 2 2 2 2 2 2 2 2 2 2 2 2 2 2 2 2 2 2 2 2 2 2 2 2
left_child=13 27 3 4 5 6 7 8 -3 10 11 12 -10 25 -15 -16 17 18 -17 -6 -8 28 -20 -24 29 -1 -27 -2 -4 -13
right_child=1 2 21 -5 19 -7 20 -9 9 -11 -12 24 -14 14 15 16 -18 -19 22 -21 -22 -23 23 -25 -26 26 -28 -29 -30 -31
leaf_value=-0.052229179420725004 -0.025292371912218614 0.060763745790627502 -0.023316045284355727 0.060596614929516707 -0.012936818872923301 0.060685542486000214 -0.018445039508501196 0.060549973812062209 0.060717445077594315 -0.0094749900042230186 0.060604157366975275 -0.020862461607475489 -0.012065985967691454 -0.034452028432961919 0.061282341096559292 0.061189457327791533 -0.034475810679819925 -0.02546095098922584 -0.030004697219725086 0.0030674884423194525 -0.0045876119614730532 0.0077494262508471523 0.064188853954669417 -0.0089911466792152346 -0.0058021791297190265 0.068933372660219358 -0.03801631202451853 -0.0091264173411895518 -0.010457715342538268 -0.0051393257279117987
leaf_weight=805.04404309391975 2149.6209994852543 403.01910296082497 937.9823314845562 1067.1555005311966 4007.9297934472561 2024.2322990000248 1337.2217580676079 2355.5596259832382 1106.2629318833351 4876.7251868247986 1971.1658445298672 2294.7828603684902 2954.0420514643192 1416.89965736866 171.5128208398819 130.12388432025909 859.20795455574989 1159.1628792881966 265.49245408177376 940.06522718071938 3640.9049572348595 438.69441735744476 106.5306376516819 1049.7557807564735 1930.4577282965183 29.218136966228485 1358.0170381069183 612.41097208857536 3527.1509284973145 593.77565351128578
leaf_count=2167 5744 1085 2503 2876 10691 5454 3568 6349 2979 13007 5312 6123 7885 3796 461 350 2298 3100 709 2507 9710 1170 286 2804 5150 78 3650 1635 9408 1584
internal_value=-1.58857e-06 0.00489236 0.00691039 0.00974323 0.0079602 0.0114266 0.00717708 0.0113477 0.00416247 0.00271203 0.00818946 -0.00344635 0.00776445 -0.0260787 -0.0193933 -0.013691 -0.0172927 -0.0118469 -0.00167809 -0.00989617 -0.00830999 -0.0112884 -0.00743185 -0.00224895 -0.0128921 -0.0418101 -0.0357637 -0.021708 -0.0131588 -0.0176304
internal_weight=46520.1 39169.2 36407.1 31503.3 30436.1 25488.2 23463.9 18485.8 16130.2 15727.2 10850.5 8879.32 4060.3 7350.97 5158.69 3741.79 3570.27 2711.07 1551.9 4948 4978.13 4903.83 1421.78 1156.29 4819.02 2192.28 1387.24 2762.03 4465.13 2888.56
internal_count=124439 104740 97361 84280 81404 68206 62752 49474 43125 42040 29033 23721 10864 19699 13804 10008 9547 7249 4149 13198 13278 13081 3799 3090 12857 5895 3728 7379 11911 7707
is_linear=0
shrinkage=0.05


Tree=7
num_leaves=31
num_cat=0
split_feature=5 2 2 2 2 2 2 2 2 2 2 2 6 5 2 2 3 6 2 4 5 3 2 2 13 2 2 5 4 3
split_gain=2374.75 841.048 750.776 1142.6 753.577 2134.16 606.215 2614.1 529.696 419.939 2647.03 376.109 1705.46 309.243 177.189 404.155 133.637 150.126 224.545 101.176 75.1228 69.8485 66.5352 207.177 64.7562 55.2435 130.866 51.6323 49.7795 49.4694
threshold=-0.83424551588450091 -1.4963760492582134 1.4001146163701457 1.1133919730695161 1.1085972150607302 0.59644878960643732 0.59638242017028242 -0.048054747314925171 -1.2156064714363222 -0.050142951377801413 -0.69264850286017754 -0.69271711080665532 1.394056443820114 -1.1433882181630424 -1.4963760492582134 -1.2156064714363222 -0.39795684367959394 1.394056443820114 -0.69271711080665532 -0.8540176005853507 -0.32171330967243106 1.7631237630170602 -0.69264850286017754 -0.050142951377801413 -0.13848436112332671 -1.4963760492582134 -1.2156064714363222 0.96761753543352447 1.0551955606145718 -0.39795684367959394
decision_type=2 2 2 2 2 2 2 2 2 2 2 2 2 2 2 2 2 2 2 2 2 2 2 2 2 2 2 2 2 2
left_child=13 29 3 4 5 6 7 8 -3 10 11 12 -10 25 -15 -16 17 18 -17 -6 -8 -4 -20 -24 -13 -1 -27 -21 -11 -2
right_child=1 2 21 -5 19 -7 20 -9 9 28 -12 24 -14 14 15 16 -18 -19 22 27 -22 -23 23 -25 -26 26 -28 -29 -30 -31
leaf_value=0.052229179420725004 0.028560480361652603 -0.060763745790627502 0.013158841063895258 -0.060596614929516707 0.029712381387695247 -0.060685542486000214 0.018445039508501196 -0.060549973812062209 -0.060717445077594315 0.011797321879964918 -0.060604157366975275 0.017630394388731499 0.012065985967691454 0.034452028432961919 -0.061282341096559292 -0.061189457327791533 0.034475810679819925 0.02546095098922584 0.030004697219725086 0.01015581243392751 0.0045876119614730532 -0.0077494262508471523 -0.064188853954669417 0.0089911466792152346 0.0058021791297190265 -0.068933372660219358 0.03801631202451853 -0.0030674884423194525 -0.0015134930825611622 0.015173678055957388
leaf_weight=805.04404309391975 1348.1896255612373 403.01910296082497 4465.1332599818707 1067.1555005311966 569.94039133191109 2024.2322990000248 1337.2217580676079 2355.5596259832382 1106.2629318833351 4025.8851456642151 1971.1658445298672 2888.558513879776 2954.0420514643192 1416.89965736866 171.5128208398819 130.12388432025909 859.20795455574989 1159.1628792881966 265.49245408177376 3437.989402115345 3640.9049572348595 438.69441735744476 106.5306376516819 1049.7557807564735 1930.4577282965183 29.218136966228485 1358.0170381069183 940.06522718071938 850.8400411605835 1413.8423460125923
leaf_count=2167 3603 1085 11911 2876 1521 5454 3568 6349 2979 10738 5312 7707 7885 3796 461 350 2298 3100 709 9170 9710 1170 286 2804 5150 78 3650 2507 2269 3776
internal_value=1.58857e-06 -0.00489236 -0.00691039 -0.00974323 -0.0079602 -0.0114266 -0.00717708 -0.0113477 -0.00416247 -0.00271203 -0.00818946 0.00344635 -0.00776445 0.0260787 0.0193933 0.013691 0.0172927 0.0118469 0.00167809 0.00989617 0.00830999 0.0112884 0.00743185 0.00224895 0.0128921 0.0418101 0.0357637 0.00731648 0.00947499 0.021708
internal_weight=46520.1 39169.2 36407.1 31503.3 30436.1 25488.2 23463.9 18485.8 16130.2 15727.2 10850.5 8879.32 4060.3 7350.97 5158.69 3741.79 3570.27 2711.07 1551.9 4948 4978.13 4903.83 1421.78 1156.29 4819.02 2192.28 1387.24 4378.05 4876.73 2762.03
internal_count=124439 104740 97361 84280 81404 68206 62752 49474 43125 42040 29033 23721 10864 19699 13804 10008 9547 7249 4149 13198 13278 13081 3799 3090 12857 5895 3728 11677 13007 7379
is_linear=0
shrinkage=0.05


Tree=8
num_leaves=1
num_cat=0
split_feature=
split_gain=
threshold=
decision_type=
left_child=
right_child=
leaf_value=0
leaf_weight=
leaf_count=155720
internal_value=
internal_weight=
internal_count=
is_linear=0
shrinkage=1


Tree=9
num_leaves=31
num_cat=0
split_feature=5 5 6 15 0 6 3 14 3 5 15 7 6 9 4 4 4 3 1 15 6 9 5 0 15 7 9 12 3 14
split_gain=2104.35 506.99 384.943 275.145 206.772 183.096 187.826 147.713 86.2539 82.3591 71.7488 69.2692 59.3592 60.7942 50.623 40.7795 37.7869 37.1374 36.3669 36.1689 33.2524 37.0736 31.7576 31.5329 31.1606 29.761 31.9559 31.3319 29.3349 31.2258
threshold=-0.61906132232026168 -1.0721651333088908 0.3578731642730541 -0.69562491289268746 -0.5998745776868345 0.87596480404658406 -0.69090598427137706 -0.68855911606116849 -0.79504505469808062 -1.3311310949921322 -0.68399891979196548 -0.63902648653210636 1.394056443820114 0.11098387617315544 -1.1141731808054112 -0.6453685595148837 -0.94015839719555239 -0.40357180576824614 -0.042098052170446328 -0.76225333045134691 -1.1964017550475352 0.24498920401597915 -0.860498285698027 -0.86604067588505396 -0.79307571113101016 -0.87088494420539864 -0.78133860363880603 -0.48770326925860036 -0.11634648456444342 -0.78891084240485554
decision_type=2 2 2 2 2 2 2 2 2 2 2 2 2 2 2 2 2 2 2 2 2 2 2 2 2 2 2 2 2 2
left_child=1 9 3 24 18 6 25 -6 -7 -1 -4 -9 13 -12 -8 -13 -15 -11 -5 -16 -17 -22 -10 -21 -2 -3 -27 -28 29 -18
right_child=2 5 10 4 7 8 14 11 22 17 12 15 -14 16 19 20 28 -19 -20 23 21 -23 -24 -25 -26 26 27 -29 -30 -31
leaf_value=-0.050080486068763766 -0.017250603780479972 -0.016251712969860502 -0.01330253455477725 0.0019164414074516606 0.00073164497405551121 -0.0108041853255247 -0.033419085240673496 -0.00051728086564267989 -0.032055028656660746 -0.028237662748169835 -0.0023212284027527481 0.0093080227209170648 -0.0081363925735537159 -0.02781783917760482 -0.026087478103603391 0.01204509970945385 -0.0092947986547467793 -0.046162983232402852 -0.011987977647871616 -0.018801408883701808 0.015095665769002568 0.020944983310391612 -0.020595638477344143 -0.0058618807811724946 -0.0037221163971367329 0.026450878262769581 0.0012561886042003305 0.01659831623704416 0.0023887236536998622 0.014851082846705006
leaf_weight=723.7428897023201 594.94934085011482 129.4165350496769 1221.6352234780788 2428.7014573514462 2078.5328418314457 1602.323503524065 276.31653264164925 703.26126313209534 1095.3694401979446 2022.0032913982868 3779.9506704509258 2282.4397464990616 1906.7799596786499 74.688350915908813 350.98654380440712 3215.7038626372814 147.36071661114693 337.12159413099289 583.18317198753357 620.18860000371933 5790.0319996476173 5090.572089523077 1349.4131118357182 1955.1157513558865 1495.7425802052021 219.30140253901482 1063.4568811953068 484.33772963285446 1228.1637406349182 1465.3705621957779
leaf_count=1969 1591 347 3269 6518 5574 4308 741 1886 2951 5467 10138 6133 5091 200 940 8641 395 911 1562 1661 15576 13717 3624 5241 4007 589 2856 1302 3291 3943
internal_value=3.11596e-06 -0.0177903 0.0063867 0.00976768 0.0114027 -0.0118798 -0.00557726 0.013317 -0.0198206 -0.0353257 -0.00196363 0.0148484 -0.00035336 0.00186312 -0.0129618 0.0155082 0.00728798 -0.0307992 -0.000775834 -0.0110302 0.0165121 0.0178323 -0.0257299 -0.008978 -0.00757193 0.00689295 0.00858799 0.00605707 0.00821093 0.0126448
internal_weight=46316.2 12229.1 34087.1 24263.1 22172.4 9146.23 5099.12 19160.5 4047.11 3082.87 9823.95 17082 8602.31 6695.53 3202.61 16378.7 2915.58 2359.12 3011.88 2926.29 14096.3 10880.6 2444.78 2575.3 2090.69 1896.51 1767.1 1547.79 2840.9 1612.73
internal_count=124439 32907 91532 65205 59607 24560 13677 51527 10883 8347 26327 45953 23058 17967 8583 44067 7829 6378 8080 7842 37934 29293 6575 6902 5598 5094 4747 4158 7629 4338
is_linear=0
shrinkage=0.05


Tree=10
num_leaves=31
num_cat=0
split_feature=5 2 2 2 2 2 2 2 2 2 2 4 6 2 2 2 6 2 2 5 4 0 2 2 3 0 2 2 4 9
split_gain=2104.35 515.069 611.545 493.959 961.335 594.588 1570.71 563.264 1710.6 498.247 2364.18 350.584 222.687 422.535 187.061 492.266 1391.28 98.4827 438.874 80.9176 75.4073 68.6748 63.1889 419.65 54.5468 53.8135 46.5842 358.261 45.0604 44.5476
threshold=-0.61906132232026168 -1.4963760492582134 -1.2156064714363222 1.4001146163701457 1.1133919730695161 -0.69264850286017754 -0.050142951377801413 1.1085972150607302 0.59644878960643732 -0.048054747314925171 0.59638242017028242 -1.0297646634829951 1.394056443820114 -0.69271711080665532 -1.4963760492582134 -0.69271711080665532 1.394056443820114 -0.69264850286017754 -0.050142951377801413 -1.1433882181630424 -1.1561771890072239 -0.062193172840112144 -0.048054747314925171 0.59638242017028242 1.9250327562169085 -0.72553433851900484 0.59644878960643732 1.1085972150607302 -0.33657857107211669 0.94476038814636787
decision_type=2 2 2 2 2 2 2 2 2 2 2 2 2 2 2 2 2 2 2 2 2 2 2 2 2 2 2 2 2 2
left_child=1 19 -3 4 5 14 -7 8 9 -8 -11 20 13 -13 -2 16 -16 -15 -19 -1 -4 -9 -20 -24 -5 -12 -25 -28 -23 -27
right_child=3 2 11 24 -6 6 7 21 -10 10 25 12 -14 17 15 -17 -18 18 22 -21 -22 28 23 26 -26 29 27 -29 -30 -31
leaf_value=0.049394712309664877 0.016984120890936406 -0.05860685027858558 0.043396201096795373 0.011050357512719235 -0.057291873551274047 -0.057328649707673519 0.0076050096623447964 0.014481149537540301 -0.057291003494424564 -0.057297443425201912 0.026244946825747024 -0.05840151478054259 0.021424242610712095 0.02271560121038866 -0.057548595267109121 0.010852179330293843 0.0091729358993587039 -0.05912859934777176 0.021521729878966538 0.030812116886497279 0.024362166384606875 0.014789628020856203 -0.060451058157768245 0.021346615314830078 -0.0086849906184889442 0.007982306089252815 -0.062456006307856797 0.01457607452862008 -0.0015769330678005681 -0.0041565810244060444
leaf_weight=794.82694590091705 1936.4160950481892 297.51537790894508 705.96600994467735 3983.0009093880653 983.91354489326477 1747.0922442674637 4406.6512073278427 2032.5004130005836 1857.2329664826393 2141.2593923807144 323.44873967766762 277.666783452034 2014.0774094164371 680.49056488275528 1213.6293388605118 4298.1060301959515 2193.3025817871094 270.94104811549187 621.41461342573166 2227.9170847535133 1979.0135051012039 539.89140462875366 230.7149755358696 679.3446458876133 383.86572206020355 3149.7576023638248 171.14983531832695 1278.0550073683262 1902.5848395228386 994.41454574465752
leaf_count=2167 5178 810 1910 10629 2696 4786 11755 5426 5089 5867 865 758 5407 1821 3320 11474 5856 738 1661 5997 5318 1440 626 1816 1024 8401 460 3418 5074 2652
internal_value=-3.11596e-06 0.0177903 0.0119105 -0.0063867 -0.00869387 -0.00702991 -0.0121406 -0.00758966 -0.0129017 -0.00541764 -0.0141008 0.0142655 0.00775077 0.00120899 0.0030917 -0.000399715 -0.0145948 0.0054184 0.00179848 0.0356984 0.0293668 0.0076911 0.0073367 0.00360046 0.00931554 0.00660259 0.010543 0.00547865 0.00204077 0.00506952
internal_weight=46316.2 12229.1 9206.35 34087.1 29720.2 28736.3 19094.8 17347.7 12872.8 11015.5 6608.88 8908.83 6223.85 4209.78 9641.45 7705.04 3406.93 3932.11 3251.62 3022.74 2684.98 4474.98 2980.68 2359.26 4366.87 4467.62 2128.55 1449.2 2442.48 4144.17
internal_count=124439 32907 24743 91532 79879 77183 51355 46569 34629 29540 17785 23933 16705 11298 25828 20650 9176 10540 8719 8164 7228 11940 7981 6320 11653 11918 5694 3878 6514 11053
is_linear=0
shrinkage=0.05


Tree=11
num_leaves=1
num_cat=0
split_feature=
split_gain=
threshold=
decision_type=
left_child=
right_child=
leaf_value=0
leaf_weight=
leaf_count=155720
internal_value=
internal_weight=
internal_count=
is_linear=0
shrinkage=1


Tree=12
num_leaves=31
num_cat=0
split_feature=5 5 6 15 14 6 3 5 4 15 3 3 6 9 7 4 3 13 10 15 4 3 5 15 1 15 9 11 10 4
split_gain=1842.74 457.182 336.804 248.25 173.308 162.012 167.2 95.3364 87.3667 64.8514 64.0308 54.4377 51.6748 55.0085 51.0308 39.1085 38.5585 38.5115 36.4362 34.9155 34.8135 32.587 33.6764 28.816 28.8239 28.325 27.6311 27.262 31.6399 26.6135
threshold=-0.61906132232026168 -1.0356289346377365 0.3578731642730541 -0.69562491289268746 -0.68855911606116849 0.87596480404658406 -0.69090598427137706 -1.2704899720106282 -0.6453685595148837 -0.68399891979196548 -0.79504505469808062 -0.40882799406993148 1.394056443820114 0.11098387617315544 -0.64367197811629628 -0.97134315896247914 -0.94169942712551946 -0.26382089227393507 -0.16871162626453667 -0.76225333045134691 -0.94015839719555239 -0.19852889941035265 -0.8083062960168671 1.06662563121497 -0.63317452080663295 -0.79307571113101016 -1.346732483468343 -0.83562707743028042 -0.67597586948286681 -0.15538786205570695
decision_type=2 2 2 2 2 2 2 2 2 2 2 2 2 2 2 2 2 2 2 2 2 2 2 2 2 2 2 2 2 2
left_child=1 7 3 25 -5 6 29 16 15 -4 -7 18 13 26 -10 -6 -1 23 -9 -8 -15 27 -23 24 -16 -2 -11 -21 -29 -3
right_child=2 5 9 4 8 10 19 11 14 12 -12 -13 -14 20 17 -17 -18 -19 -20 21 -22 22 -24 -25 -26 -27 -28 28 -30 -31
leaf_value=-0.023075078415274331 -0.016565127580701586 0.014733796159656488 -0.012623812319791167 -0.00084803298453085178 -0.014221877647168035 -0.0099986796257090158 -0.025768777640432311 -0.024092215950082294 -0.0020740653727524994 -0.010961474357850229 -0.023541243290743932 -0.043318065919244128 -0.007564760016169611 -0.026794881634230022 -0.0011611628432015824 0.0066113900331917419 -0.048412683611020607 0.016623410711265604 0.023726330041362629 -0.0145576110714712 0.0078262903992269341 -0.028813708041060038 -0.009958396422272241 -0.0053402050172967758 0.013066255697702126 -0.0036567047557264027 -0.0001200119544014756 0.019964275297428957 -0.0041202552439894942 0.0024171662204577073
leaf_weight=180.64383727312088 594.06440642476082 774.59362727403641 1219.5473002195358 2828.387898683548 242.63026231527328 1421.4774761199951 374.66192987561226 2100.1497351825237 481.03664058446884 728.36468851566315 2261.364761531353 398.21590465307236 1905.4810537397861 74.521538555622101 378.63596570491791 3147.7169049978256 889.52596989274025 8817.407999753952 40.606701552867889 522.38894063234329 2832.5579477548599 358.0314729809761 699.41833600401878 242.70430111885071 5952.7876625657082 1493.081545740366 3043.3719811439514 158.5323149561882 975.16163903474808 1011.0809919834137
leaf_count=496 1591 2090 3269 7599 651 3836 1007 5706 1292 1955 6112 1085 5091 200 1018 8482 2452 23838 110 1403 7629 964 1876 651 16076 4007 8183 427 2621 2722
internal_value=4.21765e-06 -0.0166944 0.00598242 0.0091521 0.0107094 -0.0103995 -0.00441885 -0.0316187 0.0124064 -0.00183473 -0.0183142 -0.0263428 -0.000301955 0.00177014 0.0139626 0.00512046 -0.0441357 0.0144638 -0.0231852 -0.0114609 0.00693879 -0.00948541 -0.0163424 0.0115673 0.0122154 -0.00733083 -0.00221362 -0.00510703 -0.000752348 0.0077599
internal_weight=46148.2 12165.9 33982.3 24178.5 22091.3 8556.71 4873.87 3609.14 19262.9 9803.84 3682.84 2538.97 8584.3 6678.82 15872.6 3390.35 1070.17 15391.5 2140.76 3088.19 2907.08 2713.53 1057.45 6574.13 6331.42 2087.15 3771.74 1656.08 1133.69 1785.67
internal_count=124439 32907 91532 65205 59607 23058 13110 9849 52008 26327 9948 6901 23058 17967 42875 9133 2948 41583 5816 8298 7829 7291 2840 17745 17094 5598 10138 4451 3048 4812
is_linear=0
shrinkage=0.05


Tree=13
num_leaves=31
num_cat=0
split_feature=2 2 4 2 2 2 2 2 2 6 2 2 4 2 6 4 3 2 2 0 3 13 0 7 14 4 8 4 13 2
split_gain=1832.85 1319.85 728.318 635.665 1807.12 576.115 938.914 562.603 2106.7 547.856 390.536 2235.04 373.676 189.585 623.022 87.8966 77.6718 59.5856 266.631 59.0413 56.3136 51.5736 49.3809 47.7872 47.4518 46.5552 43.9095 43.5068 43.265 42.8509
threshold=-1.2094839260331829 -0.69271711080665532 -0.94645438449663899 -0.69264850286017754 -0.050142951377801413 1.4001146163701457 1.1133919730695161 -0.048054747314925171 0.59638242017028242 0.87596480404658406 1.1085972150607302 0.59644878960643732 -0.97761016172944026 -1.4963760492582134 1.394056443820114 -1.1141731808054112 -0.39229982383254397 -0.69264850286017754 -0.050142951377801413 -0.070653213388658667 1.7631237630170602 -0.13848436112332671 -0.72553433851900484 -0.52811338019732212 -0.39271034491702017 -1.1697050069298929 -0.60517863004073991 -0.81001148647649035 -0.42340216781101558 1.1085972150607302
decision_type=2 2 2 2 2 2 2 2 2 2 2 2 2 2 2 2 2 2 2 2 2 2 2 2 2 2 2 2 2 2
left_child=9 -2 15 21 -5 6 7 24 -9 -1 11 22 25 16 -15 -3 -14 -17 -19 -12 23 -4 -10 -7 -6 -11 -16 -21 -24 -20
right_child=1 2 3 4 5 20 -8 8 10 12 19 -13 13 14 26 17 -18 18 29 27 -22 -23 28 -25 -26 -27 -28 -29 -30 -31
leaf_value=-0.056403671151768246 -0.056598131382375384 0.034603542198239239 0.015240105459157447 -0.055802513585482008 0.015547092669227901 0.022460451117800664 -0.055895955392987862 -0.055801434064736179 0.0226424365438797 0.048956393934629958 0.013745025707084758 -0.055945471136385497 0.028047891009293176 -0.057224597000267108 0.020349382140843711 0.029572846314728132 0.012997074963141484 -0.063752972459173315 0.0083890361567016108 0.03436871201922178 -0.0069503840805013525 0.0044443104133749861 0.013847299948939081 0.0093155789325849829 0.0048270591274735836 0.033093750340637718 0.0092853247102093403 0.0012467134040623944 0.002697344485508828 0.022746397091301385
leaf_weight=240.99028131365776 1219.2755120992661 664.94894331693649 2809.1270676255226 1919.6141656637192 1533.6738754212856 865.19253119826317 1020.3808172941208 2264.9400472342968 482.60497763752937 630.20117405056953 2263.4315013587475 1950.8594779372215 2492.0636856853962 341.81818133592606 1375.819312363863 519.78579360246658 1306.6554474234581 113.87813034653664 1164.0572415590286 103.4004345536232 433.50113064050674 1824.9426705241203 1203.0548214018345 3442.3728571534157 3157.6303204298019 1738.7009877562523 2575.3165348172188 2408.1700660586357 3142.8920370936394 938.85171186923981
leaf_count=665 3366 1806 7509 5322 4094 2313 2828 6280 1292 1739 6044 5405 6736 939 3708 1395 3501 307 3124 276 1157 4871 3211 9187 8424 4725 6890 6423 8383 2519
internal_value=-4.21765e-06 -0.00547933 -0.00365833 -0.00608117 -0.0091013 -0.00540783 -0.00920313 -0.00662924 -0.0117081 0.0181309 -0.00306471 -0.0107794 0.019848 0.0147348 0.00753544 0.0182982 0.0228708 0.0143363 0.0107637 0.00788837 0.0102271 0.0109886 0.00746888 0.0119558 0.00833164 0.0373137 0.0131379 0.00261033 0.0057839 0.0147989
internal_weight=46148.2 35446.6 34227.3 30825.8 26191.7 24272.1 19531 18510.7 13819.4 10701.6 11554.4 6779.41 10460.6 8091.67 4292.95 3401.52 3798.72 2736.57 2216.79 4775 4741.07 4634.07 4828.55 4307.57 4691.3 2368.9 3951.14 2511.57 4345.95 2102.91
internal_count=124439 95536 92170 83019 70639 65317 52660 49832 37314 28903 31034 18291 28238 21774 11537 9151 10237 7345 5950 12743 12657 12380 12886 11500 12518 6464 10598 6699 11594 5643
is_linear=0
shrinkage=0.05


Tree=14
num_leaves=1
num_cat=0
split_feature=
split_gain=
threshold=
decision_type=
left_child=
right_child=
leaf_value=0
leaf_weight=
leaf_count=155720
internal_value=
internal_weight=
internal_count=
is_linear=0
shrinkage=1


Tree=15
num_leaves=31
num_cat=0
split_feature=5 2 2 2 2 2 2 2 2 2 2 2 6 5 2 2 4 4 6 2 5 3 5 4 7 2 2 6 2 3
split_gain=1704.73 574.326 593.115 884.858 568.998 1680.44 500.641 2021.54 455.632 1839.15 470.132 288.837 1294.83 251.199 132.901 367.377 100.639 76.8032 72.6121 119.132 65.5246 53.1607 53.0994 52.5772 42.4469 42.3651 99.291 39.6819 131.081 51.3777
threshold=-0.8083062960168671 -1.4963760492582134 1.4001146163701457 1.1133919730695161 1.1085972150607302 0.59644878960643732 0.59638242017028242 -0.048054747314925171 -0.050142951377801413 -0.69264850286017754 -1.2156064714363222 -0.69271711080665532 1.394056443820114 -1.1433882181630424 -1.4963760492582134 -1.2156064714363222 -0.93383117949008976 -0.62990740374618837 1.394056443820114 -0.69271711080665532 -0.36207735379710976 -0.38616609844844679 1.6201843712222614 -0.55464251249370256 -0.65303851191759088 -1.4963760492582134 -1.2156064714363222 1.394056443820114 -0.69271711080665532 -0.33072310791868181
decision_type=2 2 2 2 2 2 2 2 2 2 2 2 2 2 2 2 2 2 2 2 2 2 2 2 2 2 2 2 2 2
left_child=13 21 3 4 5 6 7 8 9 10 -3 12 -12 25 -15 -16 27 -6 19 -18 -8 -2 -13 -21 -4 -1 -27 28 -17 -30
right_child=1 2 24 -5 17 -7 20 -9 -10 -11 11 22 -14 14 15 16 18 -19 -20 23 -22 -23 -24 -25 -26 26 -28 -29 29 -31
leaf_value=-0.045395308673455474 -0.025509888461682968 0.055054566607447203 -0.024196368337029633 0.054656876785516853 -0.019104570725721484 0.05452490923485033 -0.018227391624497432 0.054466780986473486 -0.0088425468618557532 0.054513874808969624 0.054920489105057563 -0.012236388256032087 -0.009728168347439255 -0.028493364358588805 0.056196784989119758 0.059011243721991916 0.055360151920971434 -0.0047973570928226813 -0.01655351637943802 0.024427741582787005 -0.0045936146799401088 -0.011277932358427417 0.0059943323021530159 -0.0080453968073303395 -0.0085748254027520378 0.063088520532014192 -0.032652369718159199 -0.034040043021873675 -0.012486416361084808 -0.031425470306183194
leaf_weight=769.42629474401474 1265.1898554563522 373.95499163866043 482.67766934633255 1010.9680757820606 1265.3239797055721 1965.5006681084633 1149.8410306274891 2257.3602855205536 4867.5050335526466 1881.9570717215538 1063.3860609531403 4280.5546671748161 2851.190231859684 1506.235272616148 193.11514183878899 53.23921337723732 98.674874156713486 3626.1959211528301 873.72957453131676 150.01901268959045 3773.1149057745934 1363.0456504225731 440.51640439033508 737.07938194274902 4388.4044342339039 27.649314820766449 1316.1228821575642 522.27349674701691 808.93787786364555 642.52185580134392
leaf_count=2162 3411 1044 1293 2839 3384 5522 3076 6345 12991 5286 2973 11445 7637 4112 534 145 275 9677 2357 406 10066 3658 1176 1983 11717 74 3644 1426 2176 1742
internal_value=0.000113193 0.00442811 0.00608977 0.0086532 0.00709233 0.0101545 0.00635269 0.0102139 0.00387501 0.00955856 0.000168135 -0.00220865 0.0078335 -0.0213558 -0.0158007 -0.0111145 -0.0144591 -0.00849831 -0.00605867 0.00324333 -0.00777802 -0.018129 -0.0105353 -0.0025538 -0.0101228 -0.0360395 -0.0306824 -0.0221655 -0.0180439 -0.0208702
internal_weight=46005.7 38306.7 35678.5 30807.4 29796.4 24904.9 22939.4 18016.4 15759.1 10891.6 9009.6 8635.65 3914.58 7699.02 5585.83 4079.59 3886.48 4891.52 1859.5 985.773 4922.96 2628.24 4721.07 887.098 4871.08 2113.2 1343.77 2026.97 1504.7 1451.46
internal_count=124576 103540 96471 83461 80622 67561 62039 48897 42552 29561 24275 23231 10610 21036 15156 11044 10510 13061 5021 2664 13142 7069 12621 2389 13010 5880 3718 5489 4063 3918
is_linear=0
shrinkage=0.05


Tree=16
num_leaves=31
num_cat=0
split_feature=5 2 2 2 2 2 2 2 2 2 2 2 6 5 2 2 4 4 6 2 5 13 3 4 7 2 2 6 2 3
split_gain=1704.73 574.326 593.115 884.858 568.998 1680.44 500.641 2021.54 455.632 1839.15 470.132 288.837 1294.83 251.199 132.901 367.377 100.639 76.8032 72.6121 119.132 65.5246 59.3234 53.1607 52.5772 42.4469 42.3651 99.291 39.6819 131.081 51.3777
threshold=-0.8083062960168671 -1.4963760492582134 1.4001146163701457 1.1133919730695161 1.1085972150607302 0.59644878960643732 0.59638242017028242 -0.048054747314925171 -0.050142951377801413 -0.69264850286017754 -1.2156064714363222 -0.69271711080665532 1.394056443820114 -1.1433882181630424 -1.4963760492582134 -1.2156064714363222 -0.93383117949008976 -0.62990740374618837 1.394056443820114 -0.69271711080665532 -0.36207735379710976 -0.11210508515625008 -0.38616609844844679 -0.55464251249370256 -0.65303851191759088 -1.4963760492582134 -1.2156064714363222 1.394056443820114 -0.69271711080665532 -0.33072310791868181
decision_type=2 2 2 2 2 2 2 2 2 2 2 2 2 2 2 2 2 2 2 2 2 2 2 2 2 2 2 2 2 2
left_child=13 22 3 4 5 6 7 8 9 10 -3 12 -12 25 -15 -16 27 -6 19 -18 -8 -13 -2 -21 -4 -1 -27 28 -17 -30
right_child=1 2 24 -5 17 -7 20 -9 -10 -11 11 21 -14 14 15 16 18 -19 -20 23 -22 -23 -24 -25 -26 26 -28 -29 29 -31
leaf_value=0.045395308673455474 0.025509888461682968 -0.055054566607447203 0.024196368337029633 -0.054656876785516853 0.019104570725721484 -0.05452490923485033 0.018227391624497432 -0.054466780986473486 0.0088425468618557532 -0.054513874808969624 -0.054920489105057563 0.014995363706782569 0.009728168347439255 0.028493364358588805 -0.056196784989119758 -0.059011243721991916 -0.055360151920971434 0.0047973570928226813 0.01655351637943802 -0.024427741582787005 0.0045936146799401088 0.0034918610907016846 0.011277932358427417 0.0080453968073303395 0.0085748254027520378 -0.063088520532014192 0.032652369718159199 0.034040043021873675 0.012486416361084808 0.031425470306183194
leaf_weight=769.42629474401474 1265.1898554563522 373.95499163866043 482.67766934633255 1010.9680757820606 1265.3239797055721 1965.5006681084633 1149.8410306274891 2257.3602855205536 4867.5050335526466 1881.9570717215538 1063.3860609531403 2890.6502545177937 2851.190231859684 1506.235272616148 193.11514183878899 53.23921337723732 98.674874156713486 3626.1959211528301 873.72957453131676 150.01901268959045 3773.1149057745934 1830.4208170473576 1363.0456504225731 737.07938194274902 4388.4044342339039 27.649314820766449 1316.1228821575642 522.27349674701691 808.93787786364555 642.52185580134392
leaf_count=2162 3411 1044 1293 2839 3384 5522 3076 6345 12991 5286 2973 7734 7637 4112 534 145 275 9677 2357 406 10066 4887 3658 1983 11717 74 3644 1426 2176 1742
internal_value=-0.000113193 -0.00442811 -0.00608977 -0.0086532 -0.00709233 -0.0101545 -0.00635269 -0.0102139 -0.00387501 -0.00955856 -0.000168135 0.00220865 -0.0078335 0.0213558 0.0158007 0.0111145 0.0144591 0.00849831 0.00605867 -0.00324333 0.00777802 0.0105353 0.018129 0.0025538 0.0101228 0.0360395 0.0306824 0.0221655 0.0180439 0.0208702
internal_weight=46005.7 38306.7 35678.5 30807.4 29796.4 24904.9 22939.4 18016.4 15759.1 10891.6 9009.6 8635.65 3914.58 7699.02 5585.83 4079.59 3886.48 4891.52 1859.5 985.773 4922.96 4721.07 2628.24 887.098 4871.08 2113.2 1343.77 2026.97 1504.7 1451.46
internal_count=124576 103540 96471 83461 80622 67561 62039 48897 42552 29561 24275 23231 10610 21036 15156 11044 10510 13061 5021 2664 13142 12621 7069 2389 13010 5880 3718 5489 4063 3918
is_linear=0
shrinkage=0.05


Tree=17
num_leaves=1
num_cat=0
split_feature=
split_gain=
threshold=
decision_type=
left_child=
right_child=
leaf_value=0
leaf_weight=
leaf_count=155720
internal_value=
internal_weight=
internal_count=
is_linear=0
shrinkage=1


Tree=18
num_leaves=31
num_cat=0
split_feature=5 2 2 2 2 2 2 2 2 2 2 2 6 4 2 2 6 2 5 4 0 13 2 2 0 9 7 10 0 7
split_gain=1500.9 503.493 520.808 798.257 500.518 1516.84 440.506 1823.05 400.22 1655.27 420.689 252.816 1159.04 230.052 167.363 310.74 93.7055 170.498 72.6197 67.9913 60.8775 54.7313 48.3272 162.29 45.6535 39.5191 37.6906 37.3954 37.3509 32.5353
threshold=-0.8083062960168671 -1.4963760492582134 1.4001146163701457 1.1133919730695161 1.1085972150607302 0.59644878960643732 0.59638242017028242 -0.048054747314925171 -0.050142951377801413 -0.69264850286017754 -1.2156064714363222 -0.69271711080665532 1.394056443820114 -1.0297646634829951 -1.4963760492582134 -1.2156064714363222 1.394056443820114 -0.69271711080665532 -1.2704899720106282 -0.8540176005853507 -0.72553433851900484 -0.11210508515625008 -0.69264850286017754 -0.050142951377801413 -0.11053430368778745 0.96180847887789112 -0.52811338019732212 -0.055246216799774844 -0.85915218906880153 -0.66319673500190446
decision_type=2 2 2 2 2 2 2 2 2 2 2 2 2 2 2 2 2 2 2 2 2 2 2 2 2 2 2 2 2 2
left_child=13 27 3 4 5 6 7 8 9 10 -3 12 -12 18 -15 -16 17 -17 -1 -6 -8 28 -19 -24 -21 -22 -4 -2 -13 -10
right_child=1 2 26 -5 19 -7 20 -9 29 -11 11 21 -14 14 15 16 -18 22 -20 24 25 -23 23 -25 -26 -27 -28 -29 -30 -31
leaf_value=-0.044120372988105457 -0.020182116290428726 0.052790797403986622 -0.018525558199702898 0.052456073929172391 -0.024613115766957662 0.05233952334994927 -0.024742441146238345 0.052289270051258045 -0.022215986972009834 0.052328911205780884 0.052676238224601102 -0.044608709166334942 -0.0090921254594062383 -0.027195061192480437 0.054255463702886635 0.054510240618170058 -0.020087168406623987 -0.026619514026179188 -0.026315597416945211 -0.011905650346649473 -0.0080201064290931628 -0.0030798050841575383 0.057462366943218469 -0.008480133660365775 -0.0015128817907854365 0.0032600447156703066 -0.0073213186492093983 -0.0058152613303279694 -0.013072417224129176 -0.0070593124973934761
leaf_weight=765.16749948263168 2035.962167173624 364.3158041536808 927.24827727675438 984.06420359015465 543.31093898415565 1912.8382327258587 452.37229323387146 2196.6530708968639 384.44706463813782 1831.5337338447571 1035.7100044488907 97.161343634128571 2847.4011751115322 1437.0690343379974 196.65481615066528 122.0106808245182 1391.5473189353943 258.77560213208199 2276.6821270287037 1814.1425007879734 3467.3441741466522 1829.5910887420177 102.17662665247917 1074.5052510201931 2530.8869364261627 1000.5038102269173 3939.9642701745033 582.52663776278496 2788.7216036915779 4480.8164833188057
leaf_count=2190 5506 1044 2488 2839 1460 5522 1216 6345 1029 5286 2973 261 7637 3981 555 347 3804 699 6284 4849 9257 4887 283 2893 6752 2669 10522 1563 7473 11962
internal_value=0.000113644 0.00417121 0.0057349 0.00815414 0.0066802 0.00957436 0.00598282 0.00963286 0.00364926 0.00901564 0.000164739 -0.00206499 0.00738284 -0.020134 -0.0130582 -0.00659984 -0.010658 -0.0022333 -0.0307943 -0.00793727 -0.00726382 -0.00984511 -0.00705637 -0.00275405 -0.00585208 -0.0054941 -0.00945583 -0.016986 -0.0141342 -0.00825697
internal_weight=45672.1 38047.5 35429 30561.8 29577.8 24689.4 22776.6 17856.4 15659.7 10794.4 8962.9 8598.59 3883.11 7624.59 4582.74 3145.67 2949.02 1557.47 3041.85 4888.34 4920.22 4715.47 1435.46 1176.68 4345.03 4467.85 4867.21 2618.49 2885.88 4865.26
internal_count=124576 103540 96471 83461 80622 67561 62039 48897 42552 29561 24275 23231 10610 21036 12562 8581 8026 4222 8474 13061 13142 12621 3875 3176 11601 11926 13010 7069 7734 12991
is_linear=0
shrinkage=0.05


Tree=19
num_leaves=31
num_cat=0
split_feature=5 2 2 2 2 2 2 2 2 2 2 2 2 5 2 2 3 2 2 2 2 0 13 0 3 5 2 2 9 3
split_gain=1500.9 503.493 520.808 798.257 500.518 1516.84 440.506 1823.05 400.22 1655.27 420.689 252.816 1140.6 226.847 117.569 326.062 87.8832 92.6093 167.87 62.5914 184.181 60.8775 54.7313 50.5896 46.9815 41.9008 39.6756 64.1333 39.5191 39.4129
threshold=-0.8083062960168671 -1.4963760492582134 1.4001146163701457 1.1133919730695161 1.1085972150607302 0.59644878960643732 0.59638242017028242 -0.048054747314925171 -0.050142951377801413 -0.69264850286017754 -1.2156064714363222 -0.69271711080665532 -1.2094839260331829 -1.1433882181630424 -1.4963760492582134 -1.2156064714363222 -0.39795684367959394 -1.2094839260331829 -0.69271711080665532 -0.69264850286017754 -0.050142951377801413 -0.72553433851900484 -0.11210508515625008 -0.062193172840112144 -0.38616609844844679 -1.3311310949921322 -1.4963760492582134 -1.2156064714363222 0.96180847887789112 1.7631237630170602
decision_type=2 2 2 2 2 2 2 2 2 2 2 2 2 2 2 2 2 2 2 2 2 2 2 2 2 2 2 2 2 2
left_child=13 24 3 4 5 6 7 8 9 10 -3 12 -12 25 -15 -16 17 -17 -19 -20 -21 -8 -13 -6 -2 -1 -27 -28 -23 -4
right_child=1 2 29 -5 23 -7 21 -9 -10 -11 11 22 -14 14 15 16 -18 18 19 20 -22 28 -24 -25 -26 26 27 -29 -30 -31
leaf_value=0.044349645752811362 0.023951202151556595 -0.052790797403986622 0.010869943009813718 -0.052456073929172391 0.013182078207866807 -0.05233952334994927 0.024742441146238345 -0.052289270051258045 0.0082569740328901388 -0.052328911205780884 0.0088437072080547498 0.014134174944130365 -0.052638131108967784 0.026854380320466123 -0.053769325163370456 0.01990664253773709 0.026882527942769702 -0.053437167875492499 0.026996105335552315 -0.05825722518333059 0.0074656535050209721 0.0080201064290931628 0.0030798050841575383 0.0030042845842332103 0.010546049269666052 0.041191403320397973 -0.059368000247773292 0.025373241443629194 -0.0032600447156703066 -0.0048598961474083094
leaf_weight=684.86995032429695 1257.9384995400906 364.3158041536808 4429.6494469046593 984.06420359015465 2369.2844785153866 1912.8382327258587 452.37229323387146 2196.6530708968639 4865.2635479569435 1831.5337338447571 2858.2641960978508 2885.8829473257065 1024.8469834625721 1492.1065215170383 188.5315737426281 1208.4500490128994 938.67466142773628 127.17175686359406 296.19020035862923 117.20446261763573 1177.9950134456158 3467.3441741466522 1829.5910887420177 2519.0558976829052 1360.5503053963184 463.74958693981171 22.8908431828022 906.75433713197708 1000.5038102269173 437.56310054659843
leaf_count=1962 3411 1044 11842 2839 6339 5522 1216 6345 12991 5286 7667 7734 2943 4112 534 3289 2571 362 799 323 3166 9257 4887 6722 3658 1324 62 2532 2669 1168
internal_value=-0.000113644 -0.00417121 -0.0057349 -0.00815414 -0.0066802 -0.00957436 -0.00598282 -0.00963286 -0.00364926 -0.00901564 -0.000164739 0.00206499 -0.00738284 0.020134 0.0148548 0.0104384 0.0135699 0.0093006 0.00184269 0.00626024 0.0015183 0.00726382 0.00984511 0.00793727 0.016986 0.034223 0.0292457 0.0232866 0.0054941 0.00945583
internal_weight=45672.1 38047.5 35429 30561.8 29577.8 24689.4 22776.6 17856.4 15659.7 10794.4 8962.9 8598.59 3883.11 7624.59 5546.32 4054.22 3865.69 2927.01 1718.56 1591.39 1295.2 4920.22 4715.47 4888.34 2618.49 2078.26 1393.39 929.645 4467.85 4867.21
internal_count=124576 103540 96471 83461 80622 67561 62039 48897 42552 29561 24275 23231 10610 21036 15156 11044 10510 7939 4650 4288 3489 13142 12621 13061 7069 5880 3918 2594 11926 13010
is_linear=0
shrinkage=0.05


Tree=20
num_leaves=1
num_cat=0
split_feature=
split_gain=
threshold=
decision_type=
left_child=
right_child=
leaf_value=0
leaf_weight=
leaf_count=155720
internal_value=
internal_weight=
internal_count=
is_linear=0
shrinkage=1


Tree=21
num_leaves=31
num_cat=0
split_feature=5 2 2 2 2 2 2 5 2 2 2 2 2 2 6 4 4 6 2 2 2 2 2 2 2 2 2 5 0 2
split_gain=1336.54 359.782 676.397 357.216 1155.81 386.844 1485.64 340.973 267.118 1576.12 197.519 263.657 123.521 923.512 219.797 98.5823 81.0546 80.3962 179.321 54.0404 62.8557 151.412 62.5761 52.6613 133.908 48.9816 154.297 42.6378 40.3013 39.1057
threshold=-0.62639864198417905 1.4001146163701457 1.1133919730695161 -0.69264850286017754 -0.050142951377801413 -0.048054747314925171 0.59638242017028242 -1.0356289346377365 1.1085972150607302 0.59644878960643732 -1.4963760492582134 -1.2156064714363222 -0.69271711080665532 -1.2094839260331829 0.87596480404658406 -0.91462751121433306 -1.0428620532666117 1.394056443820114 -0.69271711080665532 1.4001146163701457 -0.69264850286017754 -0.050142951377801413 1.1133919730695161 -1.4963760492582134 -1.2156064714363222 -0.048054747314925171 0.59638242017028242 1.6201843712222614 -0.72553433851900484 0.59644878960643732
decision_type=2 2 2 2 2 2 2 2 2 2 2 2 2 2 2 2 2 2 2 2 2 2 2 2 2 2 2 2 2 2
left_child=7 2 3 12 -5 -6 -7 16 9 28 -9 -12 13 14 -2 -13 -1 18 -17 20 -20 -22 25 -18 -25 -23 -27 -14 -8 -28
right_child=1 -3 -4 4 5 6 8 10 -10 -11 11 15 27 -15 -16 17 23 -19 19 -21 21 22 -24 24 -26 26 29 -29 -30 -31
leaf_value=-0.034217373043534526 0.050907106552937523 -0.0081379452410647451 0.050210060983396435 0.050286157290701773 -0.0066340076187652326 0.050248982815977443 -0.023053000957665697 -0.024055657964480379 -0.0061805560449923322 0.050221468162302857 0.051510592887815232 -0.013888932948633163 -0.010046991815496275 0.050614672666414819 -0.0082586926273294486 0.0510556190627377 -0.031156396551214122 -0.012609907827100017 -0.015078736689592113 -0.017188132736296814 0.051127282931893739 -0.016311888294607942 0.054500041090271872 0.053498608614661436 -0.017070206959976419 0.052671270622010248 -0.014268283882604564 0.0063830120470324955 -0.0045306702137795718 0.007608058530237518
leaf_weight=1984.7137006223202 162.94789776206017 4409.0416239202023 885.77971026301384 1615.0076293945312 4455.8522764742374 1982.5482868254185 315.91244828701019 1705.261738628149 4480.6007339954376 1740.171444863081 200.48405787348747 2729.2123269438744 3828.4200081825256 856.50576201081276 4279.7337609231472 184.95234450697899 542.59857055544853 1087.4216767549515 373.65654107928276 385.8718945980072 178.16713267564774 342.77603000402451 54.725956559181213 72.888083428144455 864.95214664936066 147.98708534240723 389.83404949307442 440.28725045919418 4172.1254726052284 429.1867241859436
leaf_count=5668 481 11788 2647 4819 11899 5920 853 4721 11976 5199 586 7446 10258 2540 11542 545 1544 2947 1007 1037 524 919 155 208 2396 429 1047 1176 11135 1164
internal_value=0.000115049 0.00517569 0.00718488 0.00583964 0.00984902 0.00604046 0.0104904 -0.0144604 0.00312977 0.00982766 -0.0089089 -0.0049378 -0.00202258 0.00307631 -0.00608862 -0.00673306 -0.0276128 -0.00126952 0.00368867 -0.000116653 0.00332085 0.00777747 0.00211719 -0.0187586 -0.0115857 -7.1494e-05 0.00568525 -0.00835235 -0.00583445 -0.00280455
internal_weight=45299.6 33624.9 29215.9 28330.1 18762.2 17147.2 12691.4 11674.7 10708.8 6228.21 8209.54 6504.28 9567.89 5299.19 4442.68 6303.79 3465.15 3574.58 2487.16 2302.21 1916.33 1542.68 1364.51 1480.44 937.84 1309.78 967.008 4268.71 4488.04 819.021
internal_count=124576 92233 80445 77798 51801 46982 35083 32343 29163 17187 22527 17806 25997 14563 12023 17220 9816 9774 6827 6282 5245 4238 3714 4148 2604 3559 2640 11434 11988 2211
is_linear=0
shrinkage=0.05


Tree=22
num_leaves=31
num_cat=0
split_feature=5 2 2 2 2 2 2 5 2 2 2 2 2 2 6 3 6 2 4 2 2 2 2 2 2 2 2 5 0 0
split_gain=1336.54 359.782 676.397 357.216 1155.81 386.844 1485.64 340.973 267.118 1576.12 197.519 263.657 123.521 923.512 219.797 100.567 106.443 181.204 81.0546 78.586 75.4025 144.503 79.3105 130.212 64.7262 52.6613 133.908 42.6378 40.3013 38.8584
threshold=-0.62639864198417905 1.4001146163701457 1.1133919730695161 -0.69264850286017754 -0.050142951377801413 -0.048054747314925171 0.59638242017028242 -1.0356289346377365 1.1085972150607302 0.59644878960643732 -1.4963760492582134 -1.2156064714363222 -0.69271711080665532 -1.2094839260331829 0.87596480404658406 -0.52246232832855866 1.394056443820114 -0.69271711080665532 -1.0428620532666117 1.4001146163701457 -0.69264850286017754 -0.050142951377801413 -0.048054747314925171 0.59638242017028242 1.1133919730695161 -1.4963760492582134 -1.2156064714363222 1.6201843712222614 -0.72553433851900484 -0.062193172840112144
decision_type=2 2 2 2 2 2 2 2 2 2 2 2 2 2 2 2 2 2 2 2 2 2 2 2 2 2 2 2 2 2
left_child=7 2 3 12 -5 -6 -7 18 9 28 -9 -12 13 14 -2 16 17 -13 -1 20 -19 -22 -23 -24 -25 -20 -27 -14 -8 -10
right_child=1 -3 -4 4 5 6 8 10 29 -11 11 15 27 -15 -16 -17 -18 19 25 -21 21 22 23 24 -26 26 -28 -29 -30 -31
leaf_value=0.034217373043534526 -0.050907106552937523 0.0081379452410647451 -0.050210060983396435 -0.050286157290701773 0.0066340076187652326 -0.050248982815977443 0.023053000957665697 0.024055657964480379 0.011268569977224479 -0.050221468162302857 -0.051510592887815232 -0.051206924002192657 0.010046991815496275 -0.050614672666414819 0.0082586926273294486 0.014311953135498427 0.014004793080336121 0.013908830847665849 0.031156396551214122 0.019451643535213919 -0.052365630100671329 0.016480503480533135 -0.054866886917323734 -0.00032877098914338144 -0.056166620149234708 -0.053498608614661436 0.017070206959976419 -0.0063830120470324955 0.0045306702137795718 0.001919274754572854
leaf_weight=1984.7137006223202 162.94789776206017 4409.0416239202023 885.77971026301384 1615.0076293945312 4455.8522764742374 1982.5482868254185 315.91244828701019 1705.261738628149 2042.1967242360115 1740.171444863081 200.48405787348747 190.0626066327095 3828.4200081825256 856.50576201081276 4279.7337609231472 2583.3329590260983 1163.9144888818264 428.32949101924896 542.59857055544853 409.61970919370651 176.58296290040016 343.44835221767426 146.80227050185204 806.22864678502083 55.470274984836578 72.888083428144455 864.95214664936066 440.28725045919418 4172.1254726052284 2438.4040097594261
leaf_count=5668 481 11788 2647 4819 11899 5920 853 4721 5470 5199 586 559 10258 2540 11542 7053 3164 1156 1544 1101 514 921 421 2175 156 208 2396 1176 11135 6506
internal_value=-0.000115049 -0.00517569 -0.00718488 -0.00583964 -0.00984902 -0.00604046 -0.0104904 0.0144604 -0.00312977 -0.00982766 0.0089089 0.0049378 0.00202258 -0.00307631 0.00608862 0.00673306 0.0014706 -0.00423583 0.0276128 -0.000463373 -0.00463208 -0.00982766 -0.00427163 -0.0113388 -0.00392323 0.0187586 0.0115857 0.00835235 0.00583445 0.00618056
internal_weight=45299.6 33624.9 29215.9 28330.1 18762.2 17147.2 12691.4 11674.7 10708.8 6228.21 8209.54 6504.28 9567.89 5299.19 4442.68 6303.79 3720.46 2556.54 3465.15 2366.48 1956.86 1528.53 1351.95 1008.5 861.699 1480.44 937.84 4268.71 4488.04 4480.6
internal_count=124576 92233 80445 77798 51801 46982 35083 32343 29163 17187 22527 17806 25997 14563 12023 17220 10167 7003 9816 6444 5343 4187 3673 2752 2331 4148 2604 11434 11988 11976
is_linear=0
shrinkage=0.05


Tree=23
num_leaves=1
num_cat=0
split_feature=
split_gain=
threshold=
decision_type=
left_child=
right_child=
leaf_value=0
leaf_weight=
leaf_count=155720
internal_value=
internal_weight=
internal_count=
is_linear=0
shrinkage=1


Tree=24
num_leaves=31
num_cat=0
split_feature=2 2 4 2 2 2 2 2 2 6 4 6 2 2 2 6 3 4 2 2 13 1 14 3 13 9 2 2 2 2
split_gain=1128.77 950.229 503.377 390.629 643.319 447.445 1186.49 373.007 1474.74 360.475 278.638 257.948 194.49 1363.43 122.025 440.735 63.3934 63.0861 55.704 232.774 45.8194 44.9125 38.7978 37.6726 37.3352 34.5804 33.028 179.284 37.9143 267.898
threshold=-1.2094839260331829 -0.69271711080665532 -0.94015839719555239 1.4001146163701457 1.1133919730695161 -0.69264850286017754 -0.050142951377801413 -0.048054747314925171 0.59638242017028242 0.87596480404658406 -0.97134315896247914 -1.1964017550475352 0.59644878960643732 1.1085972150607302 -1.4963760492582134 1.394056443820114 -0.38616609844844679 -1.1141731808054112 -0.69264850286017754 -0.050142951377801413 -0.11210508515625008 -0.97797790123815531 -0.45375624767979117 1.7631237630170602 -0.42340216781101558 -1.0599592925367165 1.1085972150607302 0.59644878960643732 0.59638242017028242 -0.048054747314925171
decision_type=2 2 2 2 2 2 2 2 2 2 2 2 2 2 2 2 2 2 2 2 2 2 2 2 2 2 2 2 2 2
left_child=9 -2 17 4 5 20 -7 22 -9 -1 21 -10 24 -14 16 -16 -12 -3 -19 -20 -4 -11 -8 -5 -13 -24 27 28 29 -21
right_child=1 2 3 23 -6 6 7 8 11 10 14 12 13 -15 15 -17 -18 18 19 26 -22 -23 25 -25 -26 -27 -28 -29 -30 -31
leaf_value=0.049319343505249011 0.049882543337182249 -0.029121546799672882 -0.012097987503984484 -0.0096070448632294813 0.0488780535368665 0.048826292233868578 -0.0137862464725417 0.048825983654564503 0.049085647767478341 -0.040880944872489298 -0.022636801873120865 -0.012871822707771142 0.049020630402765823 -0.0058725140494460129 0.05068593154947898 -0.010093875943715885 -0.0088628720358219139 -0.026498816907767883 0.059704733207164497 -0.019321883157299453 -0.0017646180761491091 -0.026060625184502473 0.013032501555250587 0.0058782480479263625 -0.0032559777725815163 -0.0053256865174129975 -0.018938059152018401 0.062902592532433618 -0.023115374975132268 0.063448722842474589
leaf_weight=217.77184590697289 1114.4538605809212 647.96340182423592 2819.8178466260433 4272.8042306303978 906.00246021151543 1725.9932354688644 1366.6752142906189 2039.9221133291721 291.23841914534569 774.0500405728817 2417.1992962956429 1442.3331138193607 1486.6027089953423 4731.6026369035244 323.12219253182411 3876.7569897472858 1276.4850139021873 526.70012086629868 118.73598378896713 539.4697193801403 1731.4914210736752 1505.4114391803741 280.1103942990303 432.51740315556526 3363.3710825443268 3044.9616817831993 989.49189087748528 86.128986060619354 452.868821144104 119.39518103003502
leaf_count=664 3390 1839 7587 11444 2793 5319 3659 6292 896 2291 6743 3866 4575 12652 960 10516 3449 1437 332 1463 4628 4260 749 1154 8986 8134 2697 240 1228 333
internal_value=0.000116616 0.0044644 0.00294968 0.00504226 0.00750883 0.00596795 0.00922148 0.00543369 0.0096943 -0.0143319 -0.0156945 0.00263955 0.0014125 0.00725093 -0.0112477 -0.00541772 -0.0178767 -0.0150471 -0.0118277 -0.00847692 -0.00816678 -0.0310932 -0.00669416 -0.00818362 -0.00614198 -0.00377916 -0.012178 -0.00659391 -0.011978 -0.00432274
internal_weight=44921.4 34530.7 33416.2 29935.4 25230.1 24324.1 19772.8 18046.8 13355.1 10390.8 10173 11315.1 11023.9 6218.21 7893.56 4199.88 3693.68 3480.75 2832.79 2306.09 4551.31 2279.46 4691.75 4705.32 4805.7 3325.07 2187.35 1197.86 1111.73 658.865
internal_count=124576 95693 92303 82734 70136 67343 55128 49809 37267 28883 28219 30975 30079 17227 21668 11476 10192 9569 7730 6293 12215 6551 12542 12598 12852 8883 5961 3264 3024 1796
is_linear=0
shrinkage=0.05


Tree=25
num_leaves=31
num_cat=0
split_feature=5 2 2 2 2 2 2 2 2 2 2 2 2 4 2 2 4 2 2 2 2 0 5 5 0 4 8 1 9 9
split_gain=1185.38 447.69 419.48 683.272 408.996 1300.34 346.864 1563.63 338.136 254.711 1523.53 198.947 986.094 150.851 118.836 267.536 79.5745 63.3199 176.915 53.713 196.048 51.9356 51.7861 38.8212 36.8284 36.4995 35.0873 33.4955 33.0545 28.5771
threshold=-0.8701609896102126 -1.4963760492582134 1.4001146163701457 1.1133919730695161 1.1085972150607302 0.59644878960643732 0.59638242017028242 -0.048054747314925171 -1.2156064714363222 -0.050142951377801413 -0.69264850286017754 -0.69271711080665532 -1.2094839260331829 -1.1339868174555583 -1.4963760492582134 -1.2156064714363222 -0.8540176005853507 -1.2094839260331829 -0.69271711080665532 -0.69264850286017754 -0.050142951377801413 -0.72553433851900484 -0.37531891063420403 0.077841455982604571 -0.11053430368778745 -0.44412456213918244 0.88705695015444086 -0.29738139722999707 0.94476038814636787 1.7255631522529253
decision_type=2 2 2 2 2 2 2 2 2 2 2 2 2 2 2 2 2 2 2 2 2 2 2 2 2 2 2 2 2 2
left_child=13 26 3 4 5 6 7 8 -3 10 11 12 -10 -1 25 -16 -6 -17 -19 -20 -21 -8 -13 -4 -18 -15 -2 -11 -23 -29
right_child=1 2 23 -5 16 -7 21 -9 9 27 -12 22 -14 14 15 17 24 18 19 20 -22 28 -24 -25 -26 -27 -28 29 -30 -31
leaf_value=0.034934233444450284 0.016808296469175286 -0.049825668287955593 0.012710464863136787 -0.049211675073722039 0.024452619815450754 -0.049128728001973904 0.021871226189228238 -0.049056242915212926 0.0079585767891149056 0.013285936753038725 -0.049006271157082899 0.017717983495099801 -0.049216613390841511 0.032971047723010773 -0.050816038179810979 0.021354939342983149 0.01036843390081027 -0.054278160676020384 0.030521795685015216 -0.059515652052278094 0.012881836838640005 0.0070568570461383567 0.005886478397340471 0.0038615201540998945 0.0010794034096467916 0.015429338239612274 -0.008827474088609984 0.0031851973670818145 -0.0031638403520130908 0.02042769334376594
leaf_weight=1345.676718711853 2746.616944283247 377.81436407566071 2644.241272598505 933.22129088640213 596.72379913926125 1815.0906266868114 491.47478002309799 2092.1698433458805 3076.9220403134823 1625.4882638454437 1746.8536249697208 1249.453636020422 998.96031308174133 1044.1734691262245 166.78452572226524 1567.484708070755 1842.612659662962 108.74566322565079 304.54340451955795 101.51779913902283 1185.3540792763233 3521.0721100866795 3559.9532286524773 2332.991064041853 2535.1007249951363 414.15954712033272 140.29175448417664 3075.0028498470783 1020.2809762358665 260.67266377806664
leaf_count=3937 7500 1139 7100 2869 1614 5579 1334 6441 8292 4355 5374 3372 3053 2998 496 4373 4936 318 839 287 3241 9410 9542 6235 6764 1166 377 8217 2722 696
internal_value=-0.000116616 -0.00337836 -0.00490591 -0.00708108 -0.0057655 -0.0083793 -0.00517686 -0.00841121 -0.00308683 -0.00195439 -0.0063196 0.00207262 -0.00605452 0.0201086 0.0160311 0.0109534 0.00732402 0.0141061 0.00742302 0.0116392 0.0071706 0.00643154 0.00896023 0.00856268 0.00498923 0.0279893 0.0155625 0.0074006 0.00476063 0.00453264
internal_weight=44921.4 38683 35796.1 30818.9 29885.6 24911.2 23096.1 18063.3 15971.1 15593.3 10632.1 8885.29 4075.88 6238.44 4892.76 3434.43 4974.44 3267.65 1700.16 1591.42 1286.87 5032.83 4809.41 4977.23 4377.71 1458.33 2886.91 4961.16 4541.35 3335.68
internal_count=124576 106921 99044 85709 82840 69526 63947 50481 44040 42901 29633 24259 11345 17655 13718 9554 13314 9058 4685 4367 3528 13466 12914 13335 11700 4164 7877 13268 12132 8913
is_linear=0
shrinkage=0.05


Tree=26
num_leaves=1
num_cat=0
split_feature=
split_gain=
threshold=
decision_type=
left_child=
right_child=
leaf_value=0
leaf_weight=
leaf_count=155720
internal_value=
internal_weight=
internal_count=
is_linear=0
shrinkage=1


Tree=27
num_leaves=31
num_cat=0
split_feature=5 2 2 2 2 2 2 2 2 2 2 2 6 5 3 4 0 5 2 2 2 2 3 14 14 2 2 5 5 0
split_gain=1059.36 392.098 369.388 626.414 362.842 1186.79 306.124 1425.23 306.911 225.077 1381.65 175.891 904.802 137.762 79.8056 73.0614 48.2313 47.1171 41.5679 107.22 40.6017 105.897 48.5076 40.2839 38.8513 38.3459 88.9409 35.3849 34.8408 34.481
threshold=-0.8701609896102126 -1.4963760492582134 1.4001146163701457 1.1133919730695161 1.1085972150607302 0.59644878960643732 0.59638242017028242 -0.048054747314925171 -1.2156064714363222 -0.050142951377801413 -0.69264850286017754 -0.69271711080665532 1.394056443820114 -1.1596240514179592 -0.79504505469808062 -0.8540176005853507 -0.72553433851900484 -0.25081564589665423 -1.4963760492582134 -1.2156064714363222 -1.2094839260331829 -0.69271711080665532 -0.37491571213887048 -0.26344033576889458 -0.39885203063445246 -0.69264850286017754 -0.050142951377801413 0.077841455982604571 -1.3311310949921322 -0.11053430368778745
decision_type=2 2 2 2 2 2 2 2 2 2 2 2 2 2 2 2 2 2 2 2 2 2 2 2 2 2 2 2 2 2
left_child=13 23 3 4 5 6 7 8 -3 10 11 12 -10 28 18 -6 -8 -13 -15 -20 -16 -22 25 -2 -11 -23 -27 -4 -1 -17
right_child=1 2 27 -5 15 -7 16 -9 9 24 -12 17 -14 14 20 29 -18 -19 19 -21 21 22 -24 -25 -26 26 -28 -29 -30 -31
leaf_value=-0.04010069234324673 -0.019370238754909563 0.048284561735404935 -0.011954895583591795 0.047814149512709313 -0.023320156498722669 0.047652361101061261 -0.020899677039866872 0.047588572847255386 0.047785378869776296 -0.013258510635282165 0.047543057670588168 -0.015262275062996253 -0.0075568145191557239 -0.016683942167012075 -0.025988587571295897 -0.0098394515653737469 -0.0043766759902553283 -0.0048056924530143624 0.048207585859312209 -0.0051463382301734709 0.053265453214653175 -0.03167480156445892 -0.028778542100092425 -0.0072708691381574465 -0.0038229250665062966 0.057529760005969134 -0.0092330808611345554 -0.0035014031416228477 -0.025589184144008809 -0.00084828771759509584
leaf_weight=640.33682262897491 1729.806938201189 364.62548470497131 2638.9815016686916 899.54185906052589 593.87908837199211 1748.395631313324 489.273178845644 2015.050748705864 973.58769994974136 1621.2124710083008 1682.4348540306091 1632.2750907838345 3059.2955379784107 579.29542806744576 1308.2606945037842 1840.5582547187805 4538.8739459514618 3168.5621773004532 103.85165724158287 1009.4179220199585 56.680298894643784 149.74776861071587 498.86552807688713 1142.1620328426361 3335.5230087935925 54.494354218244553 589.79772442579269 2331.6220024526119 1168.2364094257355 2534.9079504907131
leaf_count=1962 4771 1139 7100 2869 1614 5579 1334 6441 3085 4350 5374 4415 8260 1645 3743 4936 12132 8499 325 2790 166 415 1403 3106 8918 154 1610 6235 3442 6764
internal_value=0.000118902 0.0032109 0.00464972 0.00670968 0.00546045 0.00794713 0.00491311 0.0079824 0.0029432 0.00187471 0.00601488 -0.0018944 0.00580347 -0.0191292 -0.0143077 -0.00686404 -0.00598448 -0.00836091 -0.00582152 -0.000169203 -0.0197119 -0.0136274 -0.01656 -0.0145584 -0.00690905 -0.00888348 -0.00358627 -0.00798951 -0.0307271 -0.00463046
internal_weight=44499.6 38340.6 35468.6 30498 29598.5 24629.1 22880.7 17852.6 15837.5 15472.9 10516.2 8833.72 4032.88 6158.98 4350.41 4969.35 5028.15 4800.84 1692.57 1113.27 2657.85 1349.59 1292.91 2871.97 4956.74 794.04 644.292 4970.6 1808.57 4375.47
internal_count=124576 106921 99044 85709 82840 69526 63947 50481 44040 42901 29633 24259 11345 17655 12251 13314 13466 12914 4760 3115 7491 3748 3582 7877 13268 2179 1764 13335 5404 11700
is_linear=0
shrinkage=0.05


Tree=28
num_leaves=31
num_cat=0
split_feature=7 0 15 6 8 14 0 7 14 14 6 9 15 13 15 15 1 0 10 0 13 10 6 3 1 3 14 10 11 11
split_gain=887.664 368.663 234.668 199.858 147.564 82.1381 59.9687 49.3661 42.8843 36.6788 36.8372 35.0912 31.5413 28.0537 27.593 27.5452 27.2175 33.235 26.6448 25.17 24.7431 24.4121 24.2835 31.6995 25.5667 22.8781 20.0055 19.7664 19.5291 19.5204
threshold=-0.71965919653286348 -0.66458280518617918 -0.7252824088111921 0.3578731642730541 -0.87854300304047606 -0.71904152195160087 -1.0577221219154407 -0.91225975359822031 -0.87507134223793803 -0.84635450530299605 1.394056443820114 -1.346732483468343 -0.79688334452986187 -0.26382089227393507 -0.81344630848344013 -0.7851523794246974 0.26356031532014118 -0.85915218906880153 0.27480977237575105 -1.1341182642621244 -0.098649460562416955 -0.73183849424970104 0.87596480404658406 -0.96236329891508332 -0.97797790123815531 -0.12266797140540346 -0.87507134223793803 1.0460613712706304 -1.0859837996489208 1.7172568661944083
decision_type=2 2 2 2 2 2 2 2 2 2 2 2 2 2 2 2 2 2 2 2 2 2 2 2 2 2 2 2 2 2
left_child=4 6 12 5 22 26 -2 -6 -8 -5 11 -11 -3 29 -9 -10 17 -17 -15 -16 21 -13 -1 -24 -25 -22 -4 -12 -19 -7
right_child=1 2 3 9 7 13 8 14 15 10 27 20 -14 18 19 16 -18 28 -20 -21 25 -23 23 24 -26 -27 -28 -29 -30 -31
leaf_value=0.018770298486446291 0.027227912708701431 0.018063435555491079 0.0086284926939040833 0.013524085721602033 0.024700125870457907 -0.0089261337184802017 0.019716102593860915 0.028043311142533656 0.020208110822230108 0.007770451187379894 0.004504415935475712 -0.023899866638085847 0.0056972359733241931 -0.014632087541823735 0.033500482262754941 0.0086087534841992591 0.022032296157979789 0.010658710223973737 -0.0095663864974844543 0.0089026505728378846 -0.014878997777418577 -0.00052004674479944957 0.007650169187132275 0.041909333822544789 0.026772347533231902 -0.0042476567674518875 -0.0027874729589026613 0.026664679140534837 -0.0009001220744613705 0.00050023317811131454
leaf_weight=406.56516006588936 360.57383924722672 770.08250921964645 504.4198951125145 462.16347795724869 692.27545544505119 7116.7503323554993 543.43612232804298 210.54573950171471 284.82561272382736 717.79671412706375 1368.7987511754036 115.56670144200325 1560.6156749129295 5360.2423925995827 106.62312251329422 2049.3634178042412 207.70667403936386 417.11219817399979 5033.3044931292534 4226.0383790433407 797.05384466052055 3295.1013800799847 113.56507560610771 644.26710164546967 491.96998158097267 1385.9715347588062 1604.3686938583851 108.61242988705635 2948.6987067461014 595.13865354657173
leaf_count=1165 1015 2095 1371 1269 1973 20056 1495 589 785 1978 3688 333 4293 15195 312 5681 566 1152 14182 11805 2239 9215 332 1957 1437 3804 4450 292 8209 1643
internal_value=-0.000118902 -0.00314196 -0.0054702 -0.00671912 0.0163774 -0.00939582 0.00738409 0.0122622 0.00627496 -0.000161486 -0.000973535 -0.00263718 0.00978313 -0.0104836 0.010367 0.00503854 0.00427013 0.00358883 -0.0121789 0.00950798 -0.00397271 -0.00131225 0.0293849 0.0328378 0.0353553 -0.00812931 -5.67866e-05 0.00613354 0.00053232 -0.00819869
internal_weight=44499.6 37607.7 30796 28465.3 6891.85 20214.2 6811.72 5235.48 6451.14 8251.06 7788.9 6311.49 2330.7 18105.4 4543.21 5907.71 5622.88 5415.17 10393.5 4332.66 5593.69 3410.67 1656.37 1249.8 1136.24 2183.03 2108.79 1477.41 3365.81 7711.89
internal_count=124576 105006 86103 79715 19570 56897 18903 14679 17888 22818 21549 17569 6388 51076 12706 16393 15608 15042 29377 12117 15591 9548 4891 3726 3394 6043 5821 3980 9361 21699
is_linear=0
shrinkage=0.05


Tree=29
num_leaves=1
num_cat=0
split_feature=
split_gain=
threshold=
decision_type=
left_child=
right_child=
leaf_value=0
leaf_weight=
leaf_count=155720
internal_value=
internal_weight=
internal_count=
is_linear=0
shrinkage=1


Tree=30
num_leaves=31
num_cat=0
split_feature=5 2 2 2 2 2 2 2 2 2 6 5 5 2 2 5 0 2 2 15 2 2 1 9 0 10 12 5 12 5
split_gain=970.299 375.169 342.237 1120.1 296.377 1357.54 293.894 211.152 1312.82 181.805 843.253 132.231 89.4038 79.0866 235.631 49.2877 39.9432 39.4153 401.396 36.3528 34.1284 456.138 32.9794 31.8556 30.7106 28.3748 28.1616 28.0104 33.412 26.6561
threshold=-0.8701609896102126 -1.4963760492582134 1.1085972150607302 0.59644878960643732 0.59638242017028242 -0.048054747314925171 -1.2156064714363222 -0.050142951377801413 -0.69264850286017754 -0.69271711080665532 1.394056443820114 -1.2704899720106282 0.042614136296302028 -1.4963760492582134 -1.2156064714363222 -0.38860630308937244 -0.77831023859110193 1.4001146163701457 1.1133919730695161 0.48465016264519595 1.4001146163701457 1.1133919730695161 -0.24489166233072557 1.0624611676608062 0.54138914663620807 -0.56723742813102862 -0.47990630143118707 -0.050295728125416404 -0.57128229706641542 -0.63418658247748116
decision_type=2 2 2 2 2 2 2 2 2 2 2 2 2 2 2 2 2 2 2 2 2 2 2 2 2 2 2 2 2 2
left_child=11 19 3 4 5 6 -3 8 9 10 -8 -1 20 -13 -15 -11 -6 18 24 -2 21 25 -9 -18 -14 26 -4 -12 -29 -27
right_child=1 2 12 -5 16 -7 7 22 -10 15 27 13 17 14 -16 -17 23 -19 -20 -21 -22 -23 -24 -25 -26 29 -28 28 -30 -31
leaf_value=-0.035551365583996623 -0.01630794975775007 0.047599032143083191 -0.0086281193215074058 0.046911828689097469 -0.021988066614144073 0.046826926054553776 0.047101214850675199 -0.012102106175600069 0.046810526155537505 -0.017164520922443052 -0.00962492853273989 -0.02523160004367166 -0.0082146526105544345 0.049493407410680208 -0.014096671378171716 -0.0054847222083684623 -0.0068334124733377844 -0.0032870346704142999 0.04629289211865012 0.0032455200131595676 -0.011919800975344386 0.047993715984580618 -0.0036365213837526848 0.0035860943908131177 0.0029624384730351627 -0.029536250776644575 0.014991522886562149 0.04780693473756889 -0.00097866026640948314 -0.012509059717664911
leaf_weight=962.56877836585045 2603.0267096757889 357.9235525727272 586.45069471001625 1684.0664185583591 364.48591658473015 1970.1515398323536 951.83027511835098 1805.3905314803123 1644.7606206536293 1207.4039700329304 2262.5921540260315 1460.3117361962795 1310.1749028563499 151.87840688228607 3568.475866407156 3585.6456428766251 3764.3527571856976 2451.3413183093071 496.68932595849037 261.58765462040901 2532.7788254618645 368.00953704118729 3171.3187736868858 911.09831508994102 1157.5435254275799 273.28870636224747 160.79958865046501 36.793089419603348 760.93736436963081 1446.2088883817196
leaf_count=2990 7177 1139 1572 5498 999 6445 3077 4848 5373 3280 6130 4271 3505 469 10063 9627 10074 6555 1643 708 6823 1180 8479 2432 3088 747 431 99 2048 3887
internal_value=-9.21187e-05 0.00287922 0.0042929 0.00756224 0.0046551 0.0076927 0.00280817 0.00176895 0.00580583 -0.00185361 0.00599911 -0.0185331 -0.00312873 -0.0153711 -0.0115007 -0.00842695 -0.0060458 0.0014037 0.00528257 -0.0145224 -0.00770187 -0.00393326 -0.00670756 -0.00480298 -0.00297177 -0.0116801 -0.00354545 -0.00678459 0.00127144 -0.0152153
internal_weight=44269.9 38126.7 35262 24478.8 22794.7 17754.7 15784.6 15426.7 10450 8805.2 4012.15 6143.23 10783.3 5180.67 3720.35 4793.05 5039.94 5415.75 2964.41 2864.61 5367.54 2834.76 4976.71 4675.45 2467.72 2466.75 747.25 3060.32 797.73 1719.5
internal_count=124657 106864 98979 69548 64050 50545 44100 42961 29634 24261 11354 17793 29431 14803 10532 12907 13505 14791 8236 7885 14640 7817 13327 12506 6593 6637 2003 8277 2147 4634
is_linear=0
shrinkage=0.05


Tree=31
num_leaves=31
num_cat=0
split_feature=5 15 6 0 5 14 3 5 6 7 15 5 13 3 13 4 4 0 8 9 3 6 0 3 4 13 3 8 4 11
split_gain=970.299 256.456 196.969 154.184 132.231 75.2708 68.3279 65.1723 55.0389 51.6719 37.7992 36.2985 34.5476 32.1113 31.7442 42.3834 30.5236 29.8837 29.4668 32.5793 29.0574 34.9293 24.3296 24.1248 25.1939 23.3125 24.4009 21.4726 27.2714 21.0707
threshold=-0.8701609896102126 -0.7252824088111921 0.3578731642730541 -0.71911912438704817 -1.2704899720106282 -0.72350883748770245 -0.39795684367959394 -0.40934683117375775 0.87596480404658406 -0.68316969381679959 -0.79688334452986187 -1.0356289346377365 1.0000000180025095e-35 -0.94169942712551946 -0.26382089227393507 -0.34594657117858874 -0.67493615103581228 -0.81817081299771299 0.26377788496067794 0.22015468054869547 -0.34731611461717538 0.87596480404658406 -0.92051734337743263 -0.69090598427137706 -0.1357790318462069 -0.0085496798235498144 -0.12266797140540346 0.50257520516485255 1.3652059897204836 0.90327962039429577
decision_type=2 2 2 2 2 2 2 2 2 2 2 2 2 2 2 2 2 2 2 2 2 2 2 2 2 2 2 2 2 2
left_child=4 10 3 27 13 -5 8 20 11 -7 -2 12 22 -1 -11 18 17 -10 -16 -20 21 -4 -6 24 -13 -9 -27 28 -3 -17
right_child=1 2 7 5 6 9 -8 25 16 14 -12 23 -14 -15 15 29 -18 -19 19 -21 -22 -23 -24 -25 -26 26 -28 -29 -30 -31
leaf_value=0.01547527709573287 0.017909809337304954 0.0051441698383077501 -0.0048857899831331805 0.00040924493773221204 0.004502789928639203 0.0023009240407169682 0.027487528539611256 0.00068527615420988116 0.01679537854728665 -0.0072232881512907555 0.0066079060235823706 -0.015234309713772619 -0.02992517721094827 0.03970555814396546 -0.010414067577132237 -0.015616221666240533 0.01141879903646179 0.032220293808997401 0.013695901969919214 -0.0053520356402519008 0.013204474452028421 0.0072010168429197914 0.026515836126515591 0.0078756106236526902 0.011286959021333216 -0.012083820900282576 -0.001789559250155922 0.033034182898822838 -0.037222684968919131 -0.0094087362374006781
leaf_weight=165.02887645363808 1118.8990571498871 2327.3395400047302 831.79890739917755 2351.4959988892078 205.61972239613533 949.46718335151672 950.16051563620567 4274.0062624514103 953.72022059559822 7688.6404086947441 2183.5684835016727 378.3597120642662 40.596331924200058 797.53990191221237 2492.000489294529 4786.5397078692913 1371.5166327059269 468.12274941802025 288.37416225671768 1013.227895706892 1137.3243028223515 2124.1448331475258 322.21925184130669 373.0408727824688 117.31000012159348 881.71022289991379 1658.3135371506214 67.590924769639969 38.613630741834641 1913.5950508415699
leaf_count=493 3063 6454 2372 6509 584 2632 2739 11817 2774 21755 6024 1056 115 2497 7078 13734 3911 1369 802 2850 3154 5930 907 1027 321 2458 4546 184 105 5397
internal_value=9.21187e-05 -0.00287922 -0.00414204 -0.00668147 0.0185331 -0.00803262 0.0153711 0.00142625 0.0126498 -0.00907021 0.0104371 0.00469881 0.0145222 0.0355514 -0.00966401 -0.0114523 0.0167405 0.0218738 -0.00722932 -0.0011319 0.00641291 0.0037998 0.0179407 -0.00172906 -0.00895753 -0.00156929 -0.00536297 0.00524656 0.00445272 -0.0138433
internal_weight=44269.9 38126.7 34824.2 23916.9 6143.23 21483.3 5180.67 10907.3 4230.51 19131.8 3302.47 1437.15 568.435 962.569 18182.4 10493.7 2793.36 1421.84 3793.6 1301.6 4093.27 2955.94 527.839 868.711 495.67 6814.03 2540.02 2433.54 2365.95 6700.13
internal_count=124657 106864 97777 67500 17793 60757 14803 30277 12064 54248 9087 4010 1606 2990 51616 29861 8054 4143 10730 3652 11456 8302 1491 2404 1377 18821 7004 6743 6559 19131
is_linear=0
shrinkage=0.05


Tree=32
num_leaves=1
num_cat=0
split_feature=
split_gain=
threshold=
decision_type=
left_child=
right_child=
leaf_value=0
leaf_weight=
leaf_count=155720
internal_value=
internal_weight=
internal_count=
is_linear=0
shrinkage=1


Tree=33
num_leaves=31
num_cat=0
split_feature=5 2 2 2 2 2 2 2 2 2 6 4 2 2 5 6 2 5 2 2 14 2 2 5 4 2 2 4 9 4
split_gain=855.385 341.212 326.887 1069.45 283.295 1292.92 281.69 203.283 1244.85 172.428 800.121 123.687 96.5012 211.322 80.1067 51.6746 163.403 45.3289 44.7634 160.67 38.2673 36.9807 384.326 36.1763 35.0219 33.678 393.997 32.2058 30.0972 30.0161
threshold=-0.8701609896102126 -1.4963760492582134 1.1085972150607302 0.59644878960643732 0.59638242017028242 -0.048054747314925171 -1.2156064714363222 -0.050142951377801413 -0.69264850286017754 -0.69271711080665532 1.394056443820114 -1.1339868174555583 -1.4963760492582134 -1.2156064714363222 0.042614136296302028 1.394056443820114 -0.69271711080665532 -0.38860630308937244 -0.69264850286017754 -0.050142951377801413 -0.010026804242508439 1.4001146163701457 1.1133919730695161 -0.36207735379710976 -1.0041181292445083 1.4001146163701457 1.1133919730695161 1.0551955606145718 1.0277463495922388 -0.44412456213918244
decision_type=2 2 2 2 2 2 2 2 2 2 2 2 2 2 2 2 2 2 2 2 2 2 2 2 2 2 2 2 2 2
left_child=11 20 3 4 5 6 -3 8 9 10 -8 -1 29 -14 24 16 -15 -11 -18 -20 -2 22 -16 -6 -4 26 -26 -9 -25 -13
right_child=1 2 14 -5 23 -7 7 27 -10 17 -12 12 13 15 21 -17 18 -19 19 -21 -22 -23 -24 28 25 -27 -28 -29 -30 -31
leaf_value=-0.031274837537073032 -0.017526483732101632 0.046966843340307013 -0.023067473497378092 0.046203929784148778 -0.013327445979534853 0.046123514934127738 0.046470350459365886 -0.0084975401858922352 0.046123420391610673 -0.016535031507126922 -0.0064376345531595991 -0.029476691092383461 0.048760068335912517 0.052967006451992919 -0.003127653172229552 -0.018586530369204154 -0.027339084051836455 -0.0053213589373249564 0.056876698702097342 -0.010907421417499064 -0.0046266249587238965 -0.0034428902990206209 0.045589787347106059 -0.0060864280824683937 -0.010108085296197738 -0.010829481469471235 0.046907191902504856 0.0020323729726605547 0.0043332342453144077 -0.013295614080656427
leaf_weight=1285.7168245315552 2056.0818804204464 351.255391061306 339.81849437952042 1644.4022572040558 1265.6813673377037 1923.5996737480164 932.67340785264969 4091.8919517993927 1606.9025629162788 1203.9326645433903 3055.9551278650761 1000.1778082549572 150.08270946145058 110.13514840602875 2467.2898576259613 1533.8422290682793 301.89490470290184 3583.9144946634769 94.317821502685547 1195.6317366063595 798.05452644824982 2451.5420117378235 484.28902301192284 2856.3167532980442 2306.9699056446552 2358.3121373951435 348.82088512182236 882.80961707234383 915.06718915700912 401.7132543027401
leaf_count=4000 5712 1139 935 5498 3427 6445 3077 10970 5373 3280 8277 3004 470 330 6593 4390 852 9627 273 3313 2173 6555 1643 7634 6204 6353 1148 2357 2444 1161
internal_value=-8.46158e-05 0.00270525 0.00405818 0.00726893 0.00444472 0.0074321 0.00269436 0.0016818 0.00566348 -0.00174442 0.005934 -0.0175057 -0.0138081 -0.00924053 -0.00319916 -0.0119307 -0.00593237 -0.0081411 -0.0100074 -0.00595122 -0.0139195 0.00109593 0.0048658 -0.006013 -0.00753371 -0.00648095 -0.0026195 -0.0066289 -0.00355826 -0.02484
internal_weight=43999.1 37925.6 35071.4 24314.4 22670 17632.9 15709.3 15358.1 10383.4 8776.48 3988.63 6073.51 4787.8 3385.9 10757 3235.82 1701.98 4787.85 1591.84 1289.95 2854.14 5403.12 2951.58 5037.07 5353.92 5014.1 2655.79 4974.7 3771.38 1401.89
internal_count=124657 106864 98979 69548 64050 50545 44100 42961 29634 24261 11354 17793 13793 9628 29431 9158 4768 12907 4438 3586 7885 14791 8236 13505 14640 13705 7352 13327 10078 4165
is_linear=0
shrinkage=0.05


Tree=34
num_leaves=31
num_cat=0
split_feature=5 2 2 2 2 2 2 2 2 2 6 5 5 2 2 3 6 2 5 2 2 2 2 5 3 15 3 2 2 9
split_gain=855.385 341.212 326.887 1069.45 283.295 1292.92 281.69 203.283 1244.85 172.428 800.121 122.536 80.1067 73.9202 222.331 63.6956 53.8343 140.063 45.3289 40.8585 132.637 36.9807 384.326 36.1763 38.7127 33.2511 31.8062 31.6176 432.535 30.0972
threshold=-0.8701609896102126 -1.4963760492582134 1.1085972150607302 0.59644878960643732 0.59638242017028242 -0.048054747314925171 -1.2156064714363222 -0.050142951377801413 -0.69264850286017754 -0.69271711080665532 1.394056443820114 -1.2704899720106282 0.042614136296302028 -1.4963760492582134 -1.2156064714363222 -0.39795684367959394 1.394056443820114 -0.69271711080665532 -0.38860630308937244 -0.69264850286017754 -0.050142951377801413 1.4001146163701457 1.1133919730695161 -0.36207735379710976 -0.69090598427137706 0.48465016264519595 -0.94169942712551946 1.4001146163701457 1.1133919730695161 1.0277463495922388
decision_type=2 2 2 2 2 2 2 2 2 2 2 2 2 2 2 2 2 2 2 2 2 2 2 2 2 2 2 2 2 2
left_child=11 25 3 4 5 6 -3 8 9 10 -8 26 27 -13 -15 16 17 -16 -11 -19 -21 22 -14 24 -6 -2 -1 28 -4 -25
right_child=1 2 12 -5 23 -7 7 -9 -10 18 -12 13 21 14 15 -17 -18 19 -20 20 -22 -23 -24 29 -26 -27 -28 -29 -30 -31
leaf_value=0.01401700207057883 0.015634299543426797 -0.046966843340307013 0.011378842509288997 -0.046203929784148778 -0.00026459764513060816 -0.046123514934127738 -0.046470350459365886 0.0066289037512014719 -0.046123420391610673 0.016535031507126922 0.0064376345531595991 0.024081222789847444 0.003127653172229552 -0.048934875260465936 -0.052865838132660485 0.026063811525665059 0.017015357626387003 0.025138670040114865 0.0053213589373249564 -0.055710347642612915 0.0083098221895436374 0.0034428902990206209 -0.045589787347106059 0.0060864280824683937 0.018953246311693275 -0.0030653100580881488 0.03835916918875773 0.011593341594884182 -0.047280402371182834 -0.0043332342453144077
leaf_weight=162.33451834321022 2592.4069372415543 351.255391061306 2463.8533363342285 1644.4022572040558 370.51350155472755 1923.5996737480164 932.67340785264969 4974.7015688717365 1606.9025629162788 1203.9326645433903 3055.9551278650761 1440.552022844553 2467.2898576259613 149.81224226951599 103.82119044661522 761.51513278484344 1330.2800021767616 261.71428269147873 3583.9144946634769 88.015880346298218 1001.33152115345 2451.5420117378235 484.28902301192284 2856.3167532980442 895.16786578297615 261.72946962714195 774.13564378023148 2529.865861594677 360.20222461223602 915.06718915700912
leaf_count=493 7177 1139 6637 5498 999 6445 3077 13327 5373 3280 8277 4271 6593 469 313 2208 3786 737 9627 256 2763 6555 1643 7634 2428 708 2497 6823 1180 2444
internal_value=8.46158e-05 -0.00270525 -0.00405818 -0.00726893 -0.00444472 -0.0074321 -0.00269436 -0.0016818 -0.00566348 0.00174442 -0.005934 0.0175057 0.00319916 0.0144734 0.0107291 0.0132494 0.00974565 0.00309856 0.0081411 0.0073991 0.00313719 -0.00109593 -0.0048658 0.006013 0.0133274 0.0139195 0.0341395 0.00753371 0.00389698 0.00355826
internal_weight=43999.1 37925.6 35071.4 24314.4 22670 17632.9 15709.3 15358.1 10383.4 8776.48 3988.63 6073.51 10757 5137.04 3696.49 3546.68 2785.16 1454.88 4787.85 1351.06 1089.35 5403.12 2951.58 5037.07 1265.68 2854.14 936.47 5353.92 2824.06 3771.38
internal_count=124657 106864 98979 69548 64050 50545 44100 42961 29634 24261 11354 17793 29431 14803 10532 10063 7855 4069 12907 3756 3019 14791 8236 13505 3427 7885 2990 14640 7817 10078
is_linear=0
shrinkage=0.05


Tree=35
num_leaves=1
num_cat=0
split_feature=
split_gain=
threshold=
decision_type=
left_child=
right_child=
leaf_value=0
leaf_weight=
leaf_count=155720
internal_value=
internal_weight=
internal_count=
is_linear=0
shrinkage=1


Tree=36
num_leaves=31
num_cat=0
split_feature=5 5 2 2 2 2 2 2 2 2 2 2 6 2 2 6 2 5 2 2 2 2 2 2 2 2 2 2 12 10
split_gain=763.67 221.788 204.354 470.707 206.898 913.293 169.091 1120.28 128.067 199.028 883.22 232.037 659.023 114.774 173.115 62.9865 236.253 57.1105 53.1474 270.383 44.9625 118.021 36.9478 118.783 43.1469 279.881 32.9607 263.734 32.8922 32.5776
threshold=-0.62639864198417905 -1.0356289346377365 1.4001146163701457 1.1133919730695161 1.1085972150607302 0.59644878960643732 0.59638242017028242 -0.048054747314925171 -1.4963760492582134 -0.050142951377801413 -0.69264850286017754 -0.69271711080665532 1.394056443820114 -1.4963760492582134 -1.2156064714363222 1.394056443820114 -0.69271711080665532 -1.3311310949921322 -0.69264850286017754 -0.050142951377801413 -1.4963760492582134 -1.2156064714363222 1.4001146163701457 1.1133919730695161 -0.048054747314925171 0.59638242017028242 0.59644878960643732 1.1085972150607302 -0.63925602410187288 -0.57004059031310217
decision_type=2 2 2 2 2 2 2 2 2 2 2 2 2 2 2 2 2 2 2 2 2 2 2 2 2 2 2 2 2 2
left_child=1 17 3 4 5 6 7 8 -2 10 11 12 -10 -3 -15 16 -16 -1 28 -20 -19 -22 23 24 -21 -26 -27 -28 -18 -29
right_child=2 13 -4 -5 -6 -7 -8 -9 9 -11 -12 -13 -14 14 15 -17 18 20 19 22 21 -23 -24 -25 25 26 27 29 -30 -31
leaf_value=-0.03633247192960002 -0.010452646735088776 -0.018620669482059916 -0.0061794179491441899 0.044648852556844046 -0.0055550927126884258 0.044631083873816924 -0.0049851264623019991 0.044653252262747134 0.045246937410556978 -0.0052020687587056094 0.044703350225419478 -0.0067100721072660095 -0.0040442361252170057 0.045978709777610004 0.046986036306350593 -0.013855161870452893 0.0086554190901293199 -0.029020203427217058 0.048944102932654034 -0.015480344376142971 0.049583710084332752 -0.017374184855359194 -0.015564210360900034 0.055611185367552718 0.052792981050160497 -0.015929509680960685 0.05508504344248874 -0.0026728672881493726 -0.021114248084084842 -0.024843930497474732
leaf_weight=599.266138702631 1912.715373814106 1644.9359551668167 4412.7893933951855 743.52555617690086 4434.4652507901192 1451.1709206700325 4488.464862793684 1681.8174397349358 980.67638128995895 4468.9959810376167 1366.1043157279491 4235.5512216091156 2197.9247411489487 170.00654229521751 231.62751680612564 1558.0516553223133 108.23446044325829 809.5730744600296 240.22245755791664 710.70213311910629 68.391797751188278 1743.7722421586514 772.19787403941154 83.370544970035553 213.59566688537598 735.22638526558876 165.72988823056221 290.92438378930092 650.10258677601814 384.88367447257042
leaf_count=1998 5236 4767 11840 2622 11889 5120 12022 5928 3377 11963 4805 11409 5930 571 761 4348 299 2520 771 1944 214 5123 2122 249 662 2016 490 785 1808 1068
internal_value=-7.05892e-05 -0.0113365 0.00382023 0.00539835 0.00432612 0.00624935 0.00363836 0.00593631 0.00164169 0.00338768 0.00775971 0.000952614 0.0111633 -0.00685684 -0.00379252 -0.00516952 -0.00221917 -0.0224068 -0.00483612 -0.00229995 -0.0192237 -0.0148472 -0.00596731 -0.00309987 -0.00505695 -0.000919274 -0.00819538 -0.0014383 -0.0168653 -0.0152996
internal_weight=43555 11180.8 32374.2 27961.4 27217.9 22783.4 21332.3 16843.8 15162 13249.3 8780.26 7414.15 3178.6 7959.81 6314.88 6144.87 4586.82 3221 4355.19 3596.85 2621.74 1812.16 3356.63 2584.43 2501.06 1790.36 1576.76 841.538 758.337 675.808
internal_count=124657 32516 92141 80301 77679 65790 60670 48648 42720 37484 25521 20716 9307 22661 17894 17323 12975 9855 12214 10107 7857 5337 9336 7214 6965 5021 4359 2343 2107 1853
is_linear=0
shrinkage=0.05


Tree=37
num_leaves=31
num_cat=0
split_feature=5 5 2 2 2 2 2 2 2 2 2 2 6 2 2 6 2 5 2 2 2 2 2 2 2 2 4 5 5 9
split_gain=763.67 221.788 204.354 470.707 206.898 913.293 169.091 1120.28 128.067 199.028 883.22 232.037 659.023 114.774 173.115 62.9865 236.253 57.1105 53.1474 270.383 44.9625 118.021 36.9478 118.783 43.1469 279.881 34.6807 32.0343 30.5857 30.4924
threshold=-0.62639864198417905 -1.0356289346377365 1.4001146163701457 1.1133919730695161 1.1085972150607302 0.59644878960643732 0.59638242017028242 -0.048054747314925171 -1.4963760492582134 -0.050142951377801413 -0.69264850286017754 -0.69271711080665532 1.394056443820114 -1.4963760492582134 -1.2156064714363222 1.394056443820114 -0.69271711080665532 -1.3311310949921322 -0.69264850286017754 -0.050142951377801413 -1.4963760492582134 -1.2156064714363222 1.4001146163701457 1.1133919730695161 -0.048054747314925171 0.59638242017028242 -0.89047460443462845 0.34410385431497886 0.96761753543352447 1.0624611676608062
decision_type=2 2 2 2 2 2 2 2 2 2 2 2 2 2 2 2 2 2 2 2 2 2 2 2 2 2 2 2 2 2
left_child=1 17 3 4 5 6 7 8 -2 10 11 12 -10 -3 -15 16 -16 -1 -18 -20 -19 -22 23 24 -21 -26 -27 -13 -6 -8
right_child=2 13 -4 -5 28 -7 29 -9 9 -11 -12 27 -14 14 15 -17 18 20 19 22 21 -23 -24 -25 25 26 -28 -29 -30 -31
leaf_value=0.03633247192960002 0.010452646735088776 0.018620669482059916 0.0061794179491441899 -0.044648852556844046 0.0076785287317966619 -0.044631083873816924 0.0071014792669537828 -0.044653252262747134 -0.045246937410556978 0.0052020687587056094 -0.044703350225419478 0.010110030368788429 0.0040442361252170057 -0.045978709777610004 -0.046986036306350593 0.013855161870452893 0.016865340720279415 0.029020203427217058 -0.048944102932654034 0.015480344376142971 -0.049583710084332752 0.017374184855359194 0.015564210360900034 -0.055611185367552718 -0.052792981050160497 0.015177820714717677 0.00032031989169492597 0.0011488334848987378 -0.0025653286203752078 -0.0030398881970959812
leaf_weight=599.266138702631 1912.715373814106 1644.9359551668167 4412.7893933951855 743.52555617690086 3515.2506507337093 1451.1709206700325 3551.7888933420181 1681.8174397349358 980.67638128995895 4468.9959810376167 1366.1043157279491 2628.5451983511448 2197.9247411489487 170.00654229521751 231.62751680612564 1558.0516553223133 758.33704721927643 809.5730744600296 240.22245755791664 710.70213311910629 68.391797751188278 1743.7722421586514 772.19787403941154 83.370544970035553 213.59566688537598 835.74717065691948 741.01716110110283 1607.0060232579708 919.21460005640984 936.67596945166588
leaf_count=1998 5236 4767 11840 2622 9436 5120 9518 5928 3377 11963 4805 7100 5930 571 761 4348 2107 2520 771 1944 214 5123 2122 249 662 2328 2031 4309 2453 2504
internal_value=7.05892e-05 0.0113365 -0.00382023 -0.00539835 -0.00432612 -0.00624935 -0.00363836 -0.00593631 -0.00164169 -0.00338768 -0.00775971 -0.000952614 -0.0111633 0.00685684 0.00379252 0.00516952 0.00221917 0.0224068 0.00483612 0.00229995 0.0192237 0.0148472 0.00596731 0.00309987 0.00505695 0.000919274 0.00819538 0.00671007 0.00555509 0.00498513
internal_weight=43555 11180.8 32374.2 27961.4 27217.9 22783.4 21332.3 16843.8 15162 13249.3 8780.26 7414.15 3178.6 7959.81 6314.88 6144.87 4586.82 3221 4355.19 3596.85 2621.74 1812.16 3356.63 2584.43 2501.06 1790.36 1576.76 4235.55 4434.47 4488.46
internal_count=124657 32516 92141 80301 77679 65790 60670 48648 42720 37484 25521 20716 9307 22661 17894 17323 12975 9855 12214 10107 7857 5337 9336 7214 6965 5021 4359 11409 11889 12022
is_linear=0
shrinkage=0.05


Tree=38
num_leaves=1
num_cat=0
split_feature=
split_gain=
threshold=
decision_type=
left_child=
right_child=
leaf_value=0
leaf_weight=
leaf_count=155720
internal_value=
internal_weight=
internal_count=
is_linear=0
shrinkage=1


Tree=39
num_leaves=31
num_cat=0
split_feature=5 5 2 2 2 2 2 2 2 2 2 2 2 2 2 2 3 2 2 2 4 2 2 2 2 2 2 2 3 3
split_gain=674.438 198.904 180.065 434.01 182.651 842.222 149.279 1030.89 112.373 175.811 813.549 204.67 396.795 199.21 101.285 156.926 67.0772 56.9194 113.164 61.3953 55.8592 45.1753 103.377 42.1442 90.4903 49.1073 85.9204 38.4203 36.6775 31.5122
threshold=-0.62639864198417905 -1.0356289346377365 1.4001146163701457 1.1133919730695161 1.1085972150607302 0.59644878960643732 0.59638242017028242 -0.048054747314925171 -1.4963760492582134 -0.050142951377801413 -0.69264850286017754 -0.69271711080665532 -1.2094839260331829 -1.2156064714363222 -1.4963760492582134 -1.2156064714363222 -0.52246232832855866 -1.2094839260331829 -0.69271711080665532 1.4001146163701457 -1.1561771890072239 -1.4963760492582134 -1.2156064714363222 -0.69264850286017754 -0.050142951377801413 -0.048054747314925171 0.59638242017028242 1.1133919730695161 1.7631237630170602 -0.66113670243333489
decision_type=2 2 2 2 2 2 2 2 2 2 2 2 2 2 2 2 2 2 2 2 2 2 2 2 2 2 2 2 2 2
left_child=1 20 3 4 5 6 7 8 -2 10 11 12 13 -10 -3 -16 17 -17 -19 23 -1 -22 -23 -20 -25 -26 -27 -28 -4 -13
right_child=2 14 28 -5 -6 -7 -8 -9 9 -11 -12 29 -14 -15 15 16 -18 18 19 -21 21 22 -24 24 25 26 27 -29 -30 -31
leaf_value=-0.032056703814300189 -0.0097900153891903059 -0.017573677566135978 -0.0073201051772247318 0.043682765412013769 -0.005188576487818914 0.043666669508373154 -0.0046553116332855929 0.043686484864546384 0.04469155550352201 -0.0048583200618736054 0.043731295615487838 -0.020576770501670193 0.044001487979819995 -0.0035655909578177396 0.04487185710156058 -0.0097304865057005301 -0.011148747617551948 0.044719401759311959 -0.0091813618651015432 -0.016685610379058011 -0.02733011266203943 0.04840806422291672 -0.01508233484098525 0.045507853954151051 -0.011614854292823379 0.048515120795854988 0.002035322323159935 0.050062161526898567 0.0076658129733933947 -0.0049696937554560084
leaf_weight=874.26309230923653 1906.2588066458702 1627.356887370348 3953.7242611348629 710.42873805761337 4431.3291284739971 1386.5349308848381 4486.1276747584343 1606.9748994112015 236.82863989472389 4466.2802175879478 1305.4324742555618 352.86366021633148 692.24060815572739 2204.9646783471107 162.8305059671402 1136.0914250612259 2501.7628728151321 158.13305294513702 420.21166655421257 404.64983430504799 743.27521267533302 67.017818421125412 1479.3299294412136 150.48915681242943 345.29925832152367 127.96244812011719 798.12859424948692 43.934320956468582 455.31277742981911 3876.8621736466885
leaf_count=2909 5236 4767 10625 2622 11889 5120 12022 5928 835 11963 4805 958 2514 5958 571 3173 7100 558 1164 1107 2364 217 4365 523 939 425 2193 141 1215 10451
internal_value=-5.74917e-05 -0.0107162 0.00361172 0.00510741 0.00409063 0.00591641 0.00343983 0.00562114 0.00155445 0.00320079 0.00735276 0.000903647 0.0105876 0.00111485 -0.00646285 -0.0035696 -0.00486551 -0.000480684 0.00381064 0.000986566 -0.0213052 -0.0171999 -0.0123307 0.00477816 0.00878 0.00457789 0.010342 0.0045411 -0.00577254 -0.00627171
internal_weight=43112.9 11040.7 32072.2 27663.1 26952.7 22521.4 21134.8 16648.7 15041.7 13135.5 8669.19 7363.76 3134.03 2441.79 7876.85 6249.49 6086.66 3584.9 2448.81 2290.68 3163.89 2289.62 1546.35 1886.03 1465.81 1315.32 970.025 842.063 4409.04 4229.73
internal_count=124657 32516 92141 80301 77679 65790 60670 48648 42720 37484 25521 20716 9307 6793 22661 17894 17323 10223 7050 6492 9855 6946 4582 5385 4221 3698 2759 2334 11840 11409
is_linear=0
shrinkage=0.05


Tree=40
num_leaves=31
num_cat=0
split_feature=5 5 2 2 2 2 2 2 2 2 2 2 6 2 2 3 6 2 2 5 2 2 2 2 2 3 3 2 2 3
